FANN_FLO_2.1
num_layers=3
learning_rate=0.700000
connection_rate=1.000000
network_type=0
learning_momentum=0.000000
training_algorithm=2
train_error_function=1
train_stop_function=0
cascade_output_change_fraction=0.010000
quickprop_decay=-0.000100
quickprop_mu=1.750000
rprop_increase_factor=1.200000
rprop_decrease_factor=0.500000
rprop_delta_min=0.000000
rprop_delta_max=50.000000
rprop_delta_zero=0.100000
cascade_output_stagnation_epochs=12
cascade_candidate_change_fraction=0.010000
cascade_candidate_stagnation_epochs=12
cascade_max_out_epochs=150
cascade_max_cand_epochs=150
cascade_num_candidate_groups=2
bit_fail_limit=3.49999999999999977796e-01
cascade_candidate_limit=1.00000000000000000000e+03
cascade_weight_multiplier=4.00000000000000022204e-01
cascade_activation_functions_count=10
cascade_activation_functions=3 5 7 8 10 11 14 15 16 17 
cascade_activation_steepnesses_count=4
cascade_activation_steepnesses=2.50000000000000000000e-01 5.00000000000000000000e-01 7.50000000000000000000e-01 1.00000000000000000000e+00 
layer_sizes=529 177 33 
scale_included=0
neurons (num_inputs, activation_function, activation_steepness)=(0, 0, 0.00000000000000000000e+00) (0, 0, 0.00000000000000000000e+00) (0, 0, 0.00000000000000000000e+00) (0, 0, 0.00000000000000000000e+00) (0, 0, 0.00000000000000000000e+00) (0, 0, 0.00000000000000000000e+00) (0, 0, 0.00000000000000000000e+00) (0, 0, 0.00000000000000000000e+00) (0, 0, 0.00000000000000000000e+00) (0, 0, 0.00000000000000000000e+00) (0, 0, 0.00000000000000000000e+00) (0, 0, 0.00000000000000000000e+00) (0, 0, 0.00000000000000000000e+00) (0, 0, 0.00000000000000000000e+00) (0, 0, 0.00000000000000000000e+00) (0, 0, 0.00000000000000000000e+00) (0, 0, 0.00000000000000000000e+00) (0, 0, 0.00000000000000000000e+00) (0, 0, 0.00000000000000000000e+00) (0, 0, 0.00000000000000000000e+00) (0, 0, 0.00000000000000000000e+00) (0, 0, 0.00000000000000000000e+00) (0, 0, 0.00000000000000000000e+00) (0, 0, 0.00000000000000000000e+00) (0, 0, 0.00000000000000000000e+00) (0, 0, 0.00000000000000000000e+00) (0, 0, 0.00000000000000000000e+00) (0, 0, 0.00000000000000000000e+00) (0, 0, 0.00000000000000000000e+00) (0, 0, 0.00000000000000000000e+00) (0, 0, 0.00000000000000000000e+00) (0, 0, 0.00000000000000000000e+00) (0, 0, 0.00000000000000000000e+00) (0, 0, 0.00000000000000000000e+00) (0, 0, 0.00000000000000000000e+00) (0, 0, 0.00000000000000000000e+00) (0, 0, 0.00000000000000000000e+00) (0, 0, 0.00000000000000000000e+00) (0, 0, 0.00000000000000000000e+00) (0, 0, 0.00000000000000000000e+00) (0, 0, 0.00000000000000000000e+00) (0, 0, 0.00000000000000000000e+00) (0, 0, 0.00000000000000000000e+00) (0, 0, 0.00000000000000000000e+00) (0, 0, 0.00000000000000000000e+00) (0, 0, 0.00000000000000000000e+00) (0, 0, 0.00000000000000000000e+00) (0, 0, 0.00000000000000000000e+00) (0, 0, 0.00000000000000000000e+00) (0, 0, 0.00000000000000000000e+00) (0, 0, 0.00000000000000000000e+00) (0, 0, 0.00000000000000000000e+00) (0, 0, 0.00000000000000000000e+00) (0, 0, 0.00000000000000000000e+00) (0, 0, 0.00000000000000000000e+00) (0, 0, 0.00000000000000000000e+00) (0, 0, 0.00000000000000000000e+00) (0, 0, 0.00000000000000000000e+00) (0, 0, 0.00000000000000000000e+00) (0, 0, 0.00000000000000000000e+00) (0, 0, 0.00000000000000000000e+00) (0, 0, 0.00000000000000000000e+00) (0, 0, 0.00000000000000000000e+00) (0, 0, 0.00000000000000000000e+00) (0, 0, 0.00000000000000000000e+00) (0, 0, 0.00000000000000000000e+00) (0, 0, 0.00000000000000000000e+00) (0, 0, 0.00000000000000000000e+00) (0, 0, 0.00000000000000000000e+00) (0, 0, 0.00000000000000000000e+00) (0, 0, 0.00000000000000000000e+00) (0, 0, 0.00000000000000000000e+00) (0, 0, 0.00000000000000000000e+00) (0, 0, 0.00000000000000000000e+00) (0, 0, 0.00000000000000000000e+00) (0, 0, 0.00000000000000000000e+00) (0, 0, 0.00000000000000000000e+00) (0, 0, 0.00000000000000000000e+00) (0, 0, 0.00000000000000000000e+00) (0, 0, 0.00000000000000000000e+00) (0, 0, 0.00000000000000000000e+00) (0, 0, 0.00000000000000000000e+00) (0, 0, 0.00000000000000000000e+00) (0, 0, 0.00000000000000000000e+00) (0, 0, 0.00000000000000000000e+00) (0, 0, 0.00000000000000000000e+00) (0, 0, 0.00000000000000000000e+00) (0, 0, 0.00000000000000000000e+00) (0, 0, 0.00000000000000000000e+00) (0, 0, 0.00000000000000000000e+00) (0, 0, 0.00000000000000000000e+00) (0, 0, 0.00000000000000000000e+00) (0, 0, 0.00000000000000000000e+00) (0, 0, 0.00000000000000000000e+00) (0, 0, 0.00000000000000000000e+00) (0, 0, 0.00000000000000000000e+00) (0, 0, 0.00000000000000000000e+00) (0, 0, 0.00000000000000000000e+00) (0, 0, 0.00000000000000000000e+00) (0, 0, 0.00000000000000000000e+00) (0, 0, 0.00000000000000000000e+00) (0, 0, 0.00000000000000000000e+00) (0, 0, 0.00000000000000000000e+00) (0, 0, 0.00000000000000000000e+00) (0, 0, 0.00000000000000000000e+00) (0, 0, 0.00000000000000000000e+00) (0, 0, 0.00000000000000000000e+00) (0, 0, 0.00000000000000000000e+00) (0, 0, 0.00000000000000000000e+00) (0, 0, 0.00000000000000000000e+00) (0, 0, 0.00000000000000000000e+00) (0, 0, 0.00000000000000000000e+00) (0, 0, 0.00000000000000000000e+00) (0, 0, 0.00000000000000000000e+00) (0, 0, 0.00000000000000000000e+00) (0, 0, 0.00000000000000000000e+00) (0, 0, 0.00000000000000000000e+00) (0, 0, 0.00000000000000000000e+00) (0, 0, 0.00000000000000000000e+00) (0, 0, 0.00000000000000000000e+00) (0, 0, 0.00000000000000000000e+00) (0, 0, 0.00000000000000000000e+00) (0, 0, 0.00000000000000000000e+00) (0, 0, 0.00000000000000000000e+00) (0, 0, 0.00000000000000000000e+00) (0, 0, 0.00000000000000000000e+00) (0, 0, 0.00000000000000000000e+00) (0, 0, 0.00000000000000000000e+00) (0, 0, 0.00000000000000000000e+00) (0, 0, 0.00000000000000000000e+00) (0, 0, 0.00000000000000000000e+00) (0, 0, 0.00000000000000000000e+00) (0, 0, 0.00000000000000000000e+00) (0, 0, 0.00000000000000000000e+00) (0, 0, 0.00000000000000000000e+00) (0, 0, 0.00000000000000000000e+00) (0, 0, 0.00000000000000000000e+00) (0, 0, 0.00000000000000000000e+00) (0, 0, 0.00000000000000000000e+00) (0, 0, 0.00000000000000000000e+00) (0, 0, 0.00000000000000000000e+00) (0, 0, 0.00000000000000000000e+00) (0, 0, 0.00000000000000000000e+00) (0, 0, 0.00000000000000000000e+00) (0, 0, 0.00000000000000000000e+00) (0, 0, 0.00000000000000000000e+00) (0, 0, 0.00000000000000000000e+00) (0, 0, 0.00000000000000000000e+00) (0, 0, 0.00000000000000000000e+00) (0, 0, 0.00000000000000000000e+00) (0, 0, 0.00000000000000000000e+00) (0, 0, 0.00000000000000000000e+00) (0, 0, 0.00000000000000000000e+00) (0, 0, 0.00000000000000000000e+00) (0, 0, 0.00000000000000000000e+00) (0, 0, 0.00000000000000000000e+00) (0, 0, 0.00000000000000000000e+00) (0, 0, 0.00000000000000000000e+00) (0, 0, 0.00000000000000000000e+00) (0, 0, 0.00000000000000000000e+00) (0, 0, 0.00000000000000000000e+00) (0, 0, 0.00000000000000000000e+00) (0, 0, 0.00000000000000000000e+00) (0, 0, 0.00000000000000000000e+00) (0, 0, 0.00000000000000000000e+00) (0, 0, 0.00000000000000000000e+00) (0, 0, 0.00000000000000000000e+00) (0, 0, 0.00000000000000000000e+00) (0, 0, 0.00000000000000000000e+00) (0, 0, 0.00000000000000000000e+00) (0, 0, 0.00000000000000000000e+00) (0, 0, 0.00000000000000000000e+00) (0, 0, 0.00000000000000000000e+00) (0, 0, 0.00000000000000000000e+00) (0, 0, 0.00000000000000000000e+00) (0, 0, 0.00000000000000000000e+00) (0, 0, 0.00000000000000000000e+00) (0, 0, 0.00000000000000000000e+00) (0, 0, 0.00000000000000000000e+00) (0, 0, 0.00000000000000000000e+00) (0, 0, 0.00000000000000000000e+00) (0, 0, 0.00000000000000000000e+00) (0, 0, 0.00000000000000000000e+00) (0, 0, 0.00000000000000000000e+00) (0, 0, 0.00000000000000000000e+00) (0, 0, 0.00000000000000000000e+00) (0, 0, 0.00000000000000000000e+00) (0, 0, 0.00000000000000000000e+00) (0, 0, 0.00000000000000000000e+00) (0, 0, 0.00000000000000000000e+00) (0, 0, 0.00000000000000000000e+00) (0, 0, 0.00000000000000000000e+00) (0, 0, 0.00000000000000000000e+00) (0, 0, 0.00000000000000000000e+00) (0, 0, 0.00000000000000000000e+00) (0, 0, 0.00000000000000000000e+00) (0, 0, 0.00000000000000000000e+00) (0, 0, 0.00000000000000000000e+00) (0, 0, 0.00000000000000000000e+00) (0, 0, 0.00000000000000000000e+00) (0, 0, 0.00000000000000000000e+00) (0, 0, 0.00000000000000000000e+00) (0, 0, 0.00000000000000000000e+00) (0, 0, 0.00000000000000000000e+00) (0, 0, 0.00000000000000000000e+00) (0, 0, 0.00000000000000000000e+00) (0, 0, 0.00000000000000000000e+00) (0, 0, 0.00000000000000000000e+00) (0, 0, 0.00000000000000000000e+00) (0, 0, 0.00000000000000000000e+00) (0, 0, 0.00000000000000000000e+00) (0, 0, 0.00000000000000000000e+00) (0, 0, 0.00000000000000000000e+00) (0, 0, 0.00000000000000000000e+00) (0, 0, 0.00000000000000000000e+00) (0, 0, 0.00000000000000000000e+00) (0, 0, 0.00000000000000000000e+00) (0, 0, 0.00000000000000000000e+00) (0, 0, 0.00000000000000000000e+00) (0, 0, 0.00000000000000000000e+00) (0, 0, 0.00000000000000000000e+00) (0, 0, 0.00000000000000000000e+00) (0, 0, 0.00000000000000000000e+00) (0, 0, 0.00000000000000000000e+00) (0, 0, 0.00000000000000000000e+00) (0, 0, 0.00000000000000000000e+00) (0, 0, 0.00000000000000000000e+00) (0, 0, 0.00000000000000000000e+00) (0, 0, 0.00000000000000000000e+00) (0, 0, 0.00000000000000000000e+00) (0, 0, 0.00000000000000000000e+00) (0, 0, 0.00000000000000000000e+00) (0, 0, 0.00000000000000000000e+00) (0, 0, 0.00000000000000000000e+00) (0, 0, 0.00000000000000000000e+00) (0, 0, 0.00000000000000000000e+00) (0, 0, 0.00000000000000000000e+00) (0, 0, 0.00000000000000000000e+00) (0, 0, 0.00000000000000000000e+00) (0, 0, 0.00000000000000000000e+00) (0, 0, 0.00000000000000000000e+00) (0, 0, 0.00000000000000000000e+00) (0, 0, 0.00000000000000000000e+00) (0, 0, 0.00000000000000000000e+00) (0, 0, 0.00000000000000000000e+00) (0, 0, 0.00000000000000000000e+00) (0, 0, 0.00000000000000000000e+00) (0, 0, 0.00000000000000000000e+00) (0, 0, 0.00000000000000000000e+00) (0, 0, 0.00000000000000000000e+00) (0, 0, 0.00000000000000000000e+00) (0, 0, 0.00000000000000000000e+00) (0, 0, 0.00000000000000000000e+00) (0, 0, 0.00000000000000000000e+00) (0, 0, 0.00000000000000000000e+00) (0, 0, 0.00000000000000000000e+00) (0, 0, 0.00000000000000000000e+00) (0, 0, 0.00000000000000000000e+00) (0, 0, 0.00000000000000000000e+00) (0, 0, 0.00000000000000000000e+00) (0, 0, 0.00000000000000000000e+00) (0, 0, 0.00000000000000000000e+00) (0, 0, 0.00000000000000000000e+00) (0, 0, 0.00000000000000000000e+00) (0, 0, 0.00000000000000000000e+00) (0, 0, 0.00000000000000000000e+00) (0, 0, 0.00000000000000000000e+00) (0, 0, 0.00000000000000000000e+00) (0, 0, 0.00000000000000000000e+00) (0, 0, 0.00000000000000000000e+00) (0, 0, 0.00000000000000000000e+00) (0, 0, 0.00000000000000000000e+00) (0, 0, 0.00000000000000000000e+00) (0, 0, 0.00000000000000000000e+00) (0, 0, 0.00000000000000000000e+00) (0, 0, 0.00000000000000000000e+00) (0, 0, 0.00000000000000000000e+00) (0, 0, 0.00000000000000000000e+00) (0, 0, 0.00000000000000000000e+00) (0, 0, 0.00000000000000000000e+00) (0, 0, 0.00000000000000000000e+00) (0, 0, 0.00000000000000000000e+00) (0, 0, 0.00000000000000000000e+00) (0, 0, 0.00000000000000000000e+00) (0, 0, 0.00000000000000000000e+00) (0, 0, 0.00000000000000000000e+00) (0, 0, 0.00000000000000000000e+00) (0, 0, 0.00000000000000000000e+00) (0, 0, 0.00000000000000000000e+00) (0, 0, 0.00000000000000000000e+00) (0, 0, 0.00000000000000000000e+00) (0, 0, 0.00000000000000000000e+00) (0, 0, 0.00000000000000000000e+00) (0, 0, 0.00000000000000000000e+00) (0, 0, 0.00000000000000000000e+00) (0, 0, 0.00000000000000000000e+00) (0, 0, 0.00000000000000000000e+00) (0, 0, 0.00000000000000000000e+00) (0, 0, 0.00000000000000000000e+00) (0, 0, 0.00000000000000000000e+00) (0, 0, 0.00000000000000000000e+00) (0, 0, 0.00000000000000000000e+00) (0, 0, 0.00000000000000000000e+00) (0, 0, 0.00000000000000000000e+00) (0, 0, 0.00000000000000000000e+00) (0, 0, 0.00000000000000000000e+00) (0, 0, 0.00000000000000000000e+00) (0, 0, 0.00000000000000000000e+00) (0, 0, 0.00000000000000000000e+00) (0, 0, 0.00000000000000000000e+00) (0, 0, 0.00000000000000000000e+00) (0, 0, 0.00000000000000000000e+00) (0, 0, 0.00000000000000000000e+00) (0, 0, 0.00000000000000000000e+00) (0, 0, 0.00000000000000000000e+00) (0, 0, 0.00000000000000000000e+00) (0, 0, 0.00000000000000000000e+00) (0, 0, 0.00000000000000000000e+00) (0, 0, 0.00000000000000000000e+00) (0, 0, 0.00000000000000000000e+00) (0, 0, 0.00000000000000000000e+00) (0, 0, 0.00000000000000000000e+00) (0, 0, 0.00000000000000000000e+00) (0, 0, 0.00000000000000000000e+00) (0, 0, 0.00000000000000000000e+00) (0, 0, 0.00000000000000000000e+00) (0, 0, 0.00000000000000000000e+00) (0, 0, 0.00000000000000000000e+00) (0, 0, 0.00000000000000000000e+00) (0, 0, 0.00000000000000000000e+00) (0, 0, 0.00000000000000000000e+00) (0, 0, 0.00000000000000000000e+00) (0, 0, 0.00000000000000000000e+00) (0, 0, 0.00000000000000000000e+00) (0, 0, 0.00000000000000000000e+00) (0, 0, 0.00000000000000000000e+00) (0, 0, 0.00000000000000000000e+00) (0, 0, 0.00000000000000000000e+00) (0, 0, 0.00000000000000000000e+00) (0, 0, 0.00000000000000000000e+00) (0, 0, 0.00000000000000000000e+00) (0, 0, 0.00000000000000000000e+00) (0, 0, 0.00000000000000000000e+00) (0, 0, 0.00000000000000000000e+00) (0, 0, 0.00000000000000000000e+00) (0, 0, 0.00000000000000000000e+00) (0, 0, 0.00000000000000000000e+00) (0, 0, 0.00000000000000000000e+00) (0, 0, 0.00000000000000000000e+00) (0, 0, 0.00000000000000000000e+00) (0, 0, 0.00000000000000000000e+00) (0, 0, 0.00000000000000000000e+00) (0, 0, 0.00000000000000000000e+00) (0, 0, 0.00000000000000000000e+00) (0, 0, 0.00000000000000000000e+00) (0, 0, 0.00000000000000000000e+00) (0, 0, 0.00000000000000000000e+00) (0, 0, 0.00000000000000000000e+00) (0, 0, 0.00000000000000000000e+00) (0, 0, 0.00000000000000000000e+00) (0, 0, 0.00000000000000000000e+00) (0, 0, 0.00000000000000000000e+00) (0, 0, 0.00000000000000000000e+00) (0, 0, 0.00000000000000000000e+00) (0, 0, 0.00000000000000000000e+00) (0, 0, 0.00000000000000000000e+00) (0, 0, 0.00000000000000000000e+00) (0, 0, 0.00000000000000000000e+00) (0, 0, 0.00000000000000000000e+00) (0, 0, 0.00000000000000000000e+00) (0, 0, 0.00000000000000000000e+00) (0, 0, 0.00000000000000000000e+00) (0, 0, 0.00000000000000000000e+00) (0, 0, 0.00000000000000000000e+00) (0, 0, 0.00000000000000000000e+00) (0, 0, 0.00000000000000000000e+00) (0, 0, 0.00000000000000000000e+00) (0, 0, 0.00000000000000000000e+00) (0, 0, 0.00000000000000000000e+00) (0, 0, 0.00000000000000000000e+00) (0, 0, 0.00000000000000000000e+00) (0, 0, 0.00000000000000000000e+00) (0, 0, 0.00000000000000000000e+00) (0, 0, 0.00000000000000000000e+00) (0, 0, 0.00000000000000000000e+00) (0, 0, 0.00000000000000000000e+00) (0, 0, 0.00000000000000000000e+00) (0, 0, 0.00000000000000000000e+00) (0, 0, 0.00000000000000000000e+00) (0, 0, 0.00000000000000000000e+00) (0, 0, 0.00000000000000000000e+00) (0, 0, 0.00000000000000000000e+00) (0, 0, 0.00000000000000000000e+00) (0, 0, 0.00000000000000000000e+00) (0, 0, 0.00000000000000000000e+00) (0, 0, 0.00000000000000000000e+00) (0, 0, 0.00000000000000000000e+00) (0, 0, 0.00000000000000000000e+00) (0, 0, 0.00000000000000000000e+00) (0, 0, 0.00000000000000000000e+00) (0, 0, 0.00000000000000000000e+00) (0, 0, 0.00000000000000000000e+00) (0, 0, 0.00000000000000000000e+00) (0, 0, 0.00000000000000000000e+00) (0, 0, 0.00000000000000000000e+00) (0, 0, 0.00000000000000000000e+00) (0, 0, 0.00000000000000000000e+00) (0, 0, 0.00000000000000000000e+00) (0, 0, 0.00000000000000000000e+00) (0, 0, 0.00000000000000000000e+00) (0, 0, 0.00000000000000000000e+00) (0, 0, 0.00000000000000000000e+00) (0, 0, 0.00000000000000000000e+00) (0, 0, 0.00000000000000000000e+00) (0, 0, 0.00000000000000000000e+00) (0, 0, 0.00000000000000000000e+00) (0, 0, 0.00000000000000000000e+00) (0, 0, 0.00000000000000000000e+00) (0, 0, 0.00000000000000000000e+00) (0, 0, 0.00000000000000000000e+00) (0, 0, 0.00000000000000000000e+00) (0, 0, 0.00000000000000000000e+00) (0, 0, 0.00000000000000000000e+00) (0, 0, 0.00000000000000000000e+00) (0, 0, 0.00000000000000000000e+00) (0, 0, 0.00000000000000000000e+00) (0, 0, 0.00000000000000000000e+00) (0, 0, 0.00000000000000000000e+00) (0, 0, 0.00000000000000000000e+00) (0, 0, 0.00000000000000000000e+00) (0, 0, 0.00000000000000000000e+00) (0, 0, 0.00000000000000000000e+00) (0, 0, 0.00000000000000000000e+00) (0, 0, 0.00000000000000000000e+00) (0, 0, 0.00000000000000000000e+00) (0, 0, 0.00000000000000000000e+00) (0, 0, 0.00000000000000000000e+00) (0, 0, 0.00000000000000000000e+00) (0, 0, 0.00000000000000000000e+00) (0, 0, 0.00000000000000000000e+00) (0, 0, 0.00000000000000000000e+00) (0, 0, 0.00000000000000000000e+00) (0, 0, 0.00000000000000000000e+00) (0, 0, 0.00000000000000000000e+00) (0, 0, 0.00000000000000000000e+00) (0, 0, 0.00000000000000000000e+00) (0, 0, 0.00000000000000000000e+00) (0, 0, 0.00000000000000000000e+00) (0, 0, 0.00000000000000000000e+00) (0, 0, 0.00000000000000000000e+00) (0, 0, 0.00000000000000000000e+00) (0, 0, 0.00000000000000000000e+00) (0, 0, 0.00000000000000000000e+00) (0, 0, 0.00000000000000000000e+00) (0, 0, 0.00000000000000000000e+00) (0, 0, 0.00000000000000000000e+00) (0, 0, 0.00000000000000000000e+00) (0, 0, 0.00000000000000000000e+00) (0, 0, 0.00000000000000000000e+00) (0, 0, 0.00000000000000000000e+00) (0, 0, 0.00000000000000000000e+00) (0, 0, 0.00000000000000000000e+00) (0, 0, 0.00000000000000000000e+00) (0, 0, 0.00000000000000000000e+00) (0, 0, 0.00000000000000000000e+00) (0, 0, 0.00000000000000000000e+00) (0, 0, 0.00000000000000000000e+00) (0, 0, 0.00000000000000000000e+00) (0, 0, 0.00000000000000000000e+00) (0, 0, 0.00000000000000000000e+00) (0, 0, 0.00000000000000000000e+00) (0, 0, 0.00000000000000000000e+00) (0, 0, 0.00000000000000000000e+00) (0, 0, 0.00000000000000000000e+00) (0, 0, 0.00000000000000000000e+00) (0, 0, 0.00000000000000000000e+00) (0, 0, 0.00000000000000000000e+00) (0, 0, 0.00000000000000000000e+00) (0, 0, 0.00000000000000000000e+00) (0, 0, 0.00000000000000000000e+00) (0, 0, 0.00000000000000000000e+00) (0, 0, 0.00000000000000000000e+00) (0, 0, 0.00000000000000000000e+00) (0, 0, 0.00000000000000000000e+00) (0, 0, 0.00000000000000000000e+00) (0, 0, 0.00000000000000000000e+00) (0, 0, 0.00000000000000000000e+00) (0, 0, 0.00000000000000000000e+00) (0, 0, 0.00000000000000000000e+00) (0, 0, 0.00000000000000000000e+00) (0, 0, 0.00000000000000000000e+00) (0, 0, 0.00000000000000000000e+00) (0, 0, 0.00000000000000000000e+00) (0, 0, 0.00000000000000000000e+00) (0, 0, 0.00000000000000000000e+00) (0, 0, 0.00000000000000000000e+00) (0, 0, 0.00000000000000000000e+00) (0, 0, 0.00000000000000000000e+00) (0, 0, 0.00000000000000000000e+00) (0, 0, 0.00000000000000000000e+00) (0, 0, 0.00000000000000000000e+00) (0, 0, 0.00000000000000000000e+00) (0, 0, 0.00000000000000000000e+00) (0, 0, 0.00000000000000000000e+00) (0, 0, 0.00000000000000000000e+00) (0, 0, 0.00000000000000000000e+00) (0, 0, 0.00000000000000000000e+00) (0, 0, 0.00000000000000000000e+00) (0, 0, 0.00000000000000000000e+00) (0, 0, 0.00000000000000000000e+00) (0, 0, 0.00000000000000000000e+00) (0, 0, 0.00000000000000000000e+00) (0, 0, 0.00000000000000000000e+00) (0, 0, 0.00000000000000000000e+00) (0, 0, 0.00000000000000000000e+00) (0, 0, 0.00000000000000000000e+00) (0, 0, 0.00000000000000000000e+00) (0, 0, 0.00000000000000000000e+00) (0, 0, 0.00000000000000000000e+00) (0, 0, 0.00000000000000000000e+00) (0, 0, 0.00000000000000000000e+00) (0, 0, 0.00000000000000000000e+00) (0, 0, 0.00000000000000000000e+00) (0, 0, 0.00000000000000000000e+00) (0, 0, 0.00000000000000000000e+00) (0, 0, 0.00000000000000000000e+00) (0, 0, 0.00000000000000000000e+00) (0, 0, 0.00000000000000000000e+00) (0, 0, 0.00000000000000000000e+00) (529, 4, 5.00000000000000000000e-01) (529, 4, 5.00000000000000000000e-01) (529, 4, 5.00000000000000000000e-01) (529, 4, 5.00000000000000000000e-01) (529, 4, 5.00000000000000000000e-01) (529, 4, 5.00000000000000000000e-01) (529, 4, 5.00000000000000000000e-01) (529, 4, 5.00000000000000000000e-01) (529, 4, 5.00000000000000000000e-01) (529, 4, 5.00000000000000000000e-01) (529, 4, 5.00000000000000000000e-01) (529, 4, 5.00000000000000000000e-01) (529, 4, 5.00000000000000000000e-01) (529, 4, 5.00000000000000000000e-01) (529, 4, 5.00000000000000000000e-01) (529, 4, 5.00000000000000000000e-01) (529, 4, 5.00000000000000000000e-01) (529, 4, 5.00000000000000000000e-01) (529, 4, 5.00000000000000000000e-01) (529, 4, 5.00000000000000000000e-01) (529, 4, 5.00000000000000000000e-01) (529, 4, 5.00000000000000000000e-01) (529, 4, 5.00000000000000000000e-01) (529, 4, 5.00000000000000000000e-01) (529, 4, 5.00000000000000000000e-01) (529, 4, 5.00000000000000000000e-01) (529, 4, 5.00000000000000000000e-01) (529, 4, 5.00000000000000000000e-01) (529, 4, 5.00000000000000000000e-01) (529, 4, 5.00000000000000000000e-01) (529, 4, 5.00000000000000000000e-01) (529, 4, 5.00000000000000000000e-01) (529, 4, 5.00000000000000000000e-01) (529, 4, 5.00000000000000000000e-01) (529, 4, 5.00000000000000000000e-01) (529, 4, 5.00000000000000000000e-01) (529, 4, 5.00000000000000000000e-01) (529, 4, 5.00000000000000000000e-01) (529, 4, 5.00000000000000000000e-01) (529, 4, 5.00000000000000000000e-01) (529, 4, 5.00000000000000000000e-01) (529, 4, 5.00000000000000000000e-01) (529, 4, 5.00000000000000000000e-01) (529, 4, 5.00000000000000000000e-01) (529, 4, 5.00000000000000000000e-01) (529, 4, 5.00000000000000000000e-01) (529, 4, 5.00000000000000000000e-01) (529, 4, 5.00000000000000000000e-01) (529, 4, 5.00000000000000000000e-01) (529, 4, 5.00000000000000000000e-01) (529, 4, 5.00000000000000000000e-01) (529, 4, 5.00000000000000000000e-01) (529, 4, 5.00000000000000000000e-01) (529, 4, 5.00000000000000000000e-01) (529, 4, 5.00000000000000000000e-01) (529, 4, 5.00000000000000000000e-01) (529, 4, 5.00000000000000000000e-01) (529, 4, 5.00000000000000000000e-01) (529, 4, 5.00000000000000000000e-01) (529, 4, 5.00000000000000000000e-01) (529, 4, 5.00000000000000000000e-01) (529, 4, 5.00000000000000000000e-01) (529, 4, 5.00000000000000000000e-01) (529, 4, 5.00000000000000000000e-01) (529, 4, 5.00000000000000000000e-01) (529, 4, 5.00000000000000000000e-01) (529, 4, 5.00000000000000000000e-01) (529, 4, 5.00000000000000000000e-01) (529, 4, 5.00000000000000000000e-01) (529, 4, 5.00000000000000000000e-01) (529, 4, 5.00000000000000000000e-01) (529, 4, 5.00000000000000000000e-01) (529, 4, 5.00000000000000000000e-01) (529, 4, 5.00000000000000000000e-01) (529, 4, 5.00000000000000000000e-01) (529, 4, 5.00000000000000000000e-01) (529, 4, 5.00000000000000000000e-01) (529, 4, 5.00000000000000000000e-01) (529, 4, 5.00000000000000000000e-01) (529, 4, 5.00000000000000000000e-01) (529, 4, 5.00000000000000000000e-01) (529, 4, 5.00000000000000000000e-01) (529, 4, 5.00000000000000000000e-01) (529, 4, 5.00000000000000000000e-01) (529, 4, 5.00000000000000000000e-01) (529, 4, 5.00000000000000000000e-01) (529, 4, 5.00000000000000000000e-01) (529, 4, 5.00000000000000000000e-01) (529, 4, 5.00000000000000000000e-01) (529, 4, 5.00000000000000000000e-01) (529, 4, 5.00000000000000000000e-01) (529, 4, 5.00000000000000000000e-01) (529, 4, 5.00000000000000000000e-01) (529, 4, 5.00000000000000000000e-01) (529, 4, 5.00000000000000000000e-01) (529, 4, 5.00000000000000000000e-01) (529, 4, 5.00000000000000000000e-01) (529, 4, 5.00000000000000000000e-01) (529, 4, 5.00000000000000000000e-01) (529, 4, 5.00000000000000000000e-01) (529, 4, 5.00000000000000000000e-01) (529, 4, 5.00000000000000000000e-01) (529, 4, 5.00000000000000000000e-01) (529, 4, 5.00000000000000000000e-01) (529, 4, 5.00000000000000000000e-01) (529, 4, 5.00000000000000000000e-01) (529, 4, 5.00000000000000000000e-01) (529, 4, 5.00000000000000000000e-01) (529, 4, 5.00000000000000000000e-01) (529, 4, 5.00000000000000000000e-01) (529, 4, 5.00000000000000000000e-01) (529, 4, 5.00000000000000000000e-01) (529, 4, 5.00000000000000000000e-01) (529, 4, 5.00000000000000000000e-01) (529, 4, 5.00000000000000000000e-01) (529, 4, 5.00000000000000000000e-01) (529, 4, 5.00000000000000000000e-01) (529, 4, 5.00000000000000000000e-01) (529, 4, 5.00000000000000000000e-01) (529, 4, 5.00000000000000000000e-01) (529, 4, 5.00000000000000000000e-01) (529, 4, 5.00000000000000000000e-01) (529, 4, 5.00000000000000000000e-01) (529, 4, 5.00000000000000000000e-01) (529, 4, 5.00000000000000000000e-01) (529, 4, 5.00000000000000000000e-01) (529, 4, 5.00000000000000000000e-01) (529, 4, 5.00000000000000000000e-01) (529, 4, 5.00000000000000000000e-01) (529, 4, 5.00000000000000000000e-01) (529, 4, 5.00000000000000000000e-01) (529, 4, 5.00000000000000000000e-01) (529, 4, 5.00000000000000000000e-01) (529, 4, 5.00000000000000000000e-01) (529, 4, 5.00000000000000000000e-01) (529, 4, 5.00000000000000000000e-01) (529, 4, 5.00000000000000000000e-01) (529, 4, 5.00000000000000000000e-01) (529, 4, 5.00000000000000000000e-01) (529, 4, 5.00000000000000000000e-01) (529, 4, 5.00000000000000000000e-01) (529, 4, 5.00000000000000000000e-01) (529, 4, 5.00000000000000000000e-01) (529, 4, 5.00000000000000000000e-01) (529, 4, 5.00000000000000000000e-01) (529, 4, 5.00000000000000000000e-01) (529, 4, 5.00000000000000000000e-01) (529, 4, 5.00000000000000000000e-01) (529, 4, 5.00000000000000000000e-01) (529, 4, 5.00000000000000000000e-01) (529, 4, 5.00000000000000000000e-01) (529, 4, 5.00000000000000000000e-01) (529, 4, 5.00000000000000000000e-01) (529, 4, 5.00000000000000000000e-01) (529, 4, 5.00000000000000000000e-01) (529, 4, 5.00000000000000000000e-01) (529, 4, 5.00000000000000000000e-01) (529, 4, 5.00000000000000000000e-01) (529, 4, 5.00000000000000000000e-01) (529, 4, 5.00000000000000000000e-01) (529, 4, 5.00000000000000000000e-01) (529, 4, 5.00000000000000000000e-01) (529, 4, 5.00000000000000000000e-01) (529, 4, 5.00000000000000000000e-01) (529, 4, 5.00000000000000000000e-01) (529, 4, 5.00000000000000000000e-01) (529, 4, 5.00000000000000000000e-01) (529, 4, 5.00000000000000000000e-01) (529, 4, 5.00000000000000000000e-01) (529, 4, 5.00000000000000000000e-01) (529, 4, 5.00000000000000000000e-01) (529, 4, 5.00000000000000000000e-01) (529, 4, 5.00000000000000000000e-01) (529, 4, 5.00000000000000000000e-01) (529, 4, 5.00000000000000000000e-01) (529, 4, 5.00000000000000000000e-01) (0, 0, 0.00000000000000000000e+00) (177, 4, 5.00000000000000000000e-01) (177, 4, 5.00000000000000000000e-01) (177, 4, 5.00000000000000000000e-01) (177, 4, 5.00000000000000000000e-01) (177, 4, 5.00000000000000000000e-01) (177, 4, 5.00000000000000000000e-01) (177, 4, 5.00000000000000000000e-01) (177, 4, 5.00000000000000000000e-01) (177, 4, 5.00000000000000000000e-01) (177, 4, 5.00000000000000000000e-01) (177, 4, 5.00000000000000000000e-01) (177, 4, 5.00000000000000000000e-01) (177, 4, 5.00000000000000000000e-01) (177, 4, 5.00000000000000000000e-01) (177, 4, 5.00000000000000000000e-01) (177, 4, 5.00000000000000000000e-01) (177, 4, 5.00000000000000000000e-01) (177, 4, 5.00000000000000000000e-01) (177, 4, 5.00000000000000000000e-01) (177, 4, 5.00000000000000000000e-01) (177, 4, 5.00000000000000000000e-01) (177, 4, 5.00000000000000000000e-01) (177, 4, 5.00000000000000000000e-01) (177, 4, 5.00000000000000000000e-01) (177, 4, 5.00000000000000000000e-01) (177, 4, 5.00000000000000000000e-01) (177, 4, 5.00000000000000000000e-01) (177, 4, 5.00000000000000000000e-01) (177, 4, 5.00000000000000000000e-01) (177, 4, 5.00000000000000000000e-01) (177, 4, 5.00000000000000000000e-01) (177, 4, 5.00000000000000000000e-01) (0, 0, 0.00000000000000000000e+00) 
connections (connected_to_neuron, weight)=(0, -1.79815763169510596242e+01) (1, -1.03593719581125398577e+00) (2, 1.18132199926976144688e+00) (3, 1.11003632678393304722e+00) (4, 2.68059821546676602111e+00) (5, -2.50075620153139288604e+00) (6, -1.04932135553168546238e+01) (7, -1.96628785203990439356e+01) (8, -5.18040095239906062119e+00) (9, -5.60911930296896166226e+00) (10, -3.63632255537741633233e+00) (11, -7.45861413703365272454e+00) (12, -4.46410441446722483505e+00) (13, -1.59389887931387641551e+00) (14, -3.31340937297706839004e+00) (15, -3.63003492129590554782e+00) (16, -4.62173498057186638022e+00) (17, -3.83147583493199839211e+00) (18, -2.26471617787910552977e+01) (19, -2.42772665082421781335e+01) (20, -1.03585415990161191502e+01) (21, -1.34739599220953820691e+01) (22, -4.51011573777241281391e+00) (23, -8.02423864236574146958e+00) (24, 2.68722885966899838195e+00) (25, -5.14001472892453126207e+00) (26, -4.55790709958118966938e+00) (27, -4.55822292224211267353e+00) (28, -4.46628726527733377338e+00) (29, -8.85215596274965399459e+00) (30, -8.62847771062149604404e-02) (31, -2.49955996079249009867e+00) (32, -7.73956876570534690885e-01) (33, -8.80240871922605627731e+00) (34, -2.12504350942319355511e+01) (35, -2.12454002004807911419e+01) (36, -2.12239972305243931316e+01) (37, -2.13043639761155567669e+01) (38, -3.59848848673138448362e+01) (39, -3.60159630420241185789e+01) (40, -5.56588671583840444157e+00) (41, -1.44781818403017337182e+00) (42, -8.64615768005795715112e+00) (43, -1.44498885212552363733e+00) (44, -5.22630996855189255967e+00) (45, -5.15328722300221375718e+00) (46, -5.05995054396082810655e+00) (47, -4.51910908774179986835e+00) (48, -3.04417995790588236105e+01) (49, -9.48577148174292261729e+00) (50, -3.24965047104895958796e+01) (51, -9.05376230405094517550e+00) (52, -3.26125874980033287898e+01) (53, -3.25689379661024460688e+01) (54, -1.13896925151580049373e+02) (55, -5.83347622587324536880e+01) (56, -2.13106659528559170269e+01) (57, -2.13453930419629536175e+01) (58, -3.06379639469651650074e+01) (59, -1.58638038976171937833e+01) (60, -9.13156907486481195235e+00) (61, -1.13946933688840221777e+01) (62, -1.12863282950839352026e+01) (63, -2.11624929984038168129e+01) (64, -1.19265088758212804976e+01) (65, -1.31826406879436786035e+00) (66, -1.83923348807041193709e+01) (67, -1.09666948117990994405e+01) (68, -1.34813493652355487207e+00) (69, -1.29731127988846015597e+01) (70, -4.16607614505622123602e+01) (71, -1.29491336805832202295e+00) (72, -2.89629972527163523921e+01) (73, -2.89785549367206591853e+01) (74, -4.47201889319064278538e+01) (75, -3.25208722515643486872e+01) (76, -2.12944150593822918438e+01) (77, -1.12098713906726192846e+01) (78, -1.13833797516545605077e+01) (79, -1.98699034002160672685e+01) (80, -2.48471705250112577801e+01) (81, -5.81618207528234876236e+01) (82, -5.82020586862207807144e+01) (83, -4.47007842933478016789e+01) (84, -4.47097333868684430058e+01) (85, -4.47171811287941594060e+01) (86, -2.62532922545014173465e+01) (87, -1.77771387490801480169e+01) (88, -1.30309999151241595605e+00) (89, -1.98052504729961995622e+01) (90, -3.24659601761639962092e+01) (91, -8.67429614251203773279e+00) (92, -4.47948970899624399067e+00) (93, -1.45644855840216944642e+01) (94, -9.99679523512290302278e+00) (95, -6.89342089456454321095e+00) (96, -2.13679471489733181500e+01) (97, -4.46094753978492875035e+01) (98, -8.13118710452875745887e+01) (99, -1.13941707372897340633e+02) (100, -1.13832369514041616299e+02) (101, -8.11989342132768285865e+01) (102, -5.21258351339863565954e+01) (103, -3.25226424722612748042e+01) (104, 1.22292290684555027269e+01) (105, -1.42304357101906688854e+01) (106, -5.81831585600019849380e+01) (107, -1.56072301040511174364e+01) (108, -1.39753402658140188919e+01) (109, 2.70075415939691509948e+00) (110, -2.91105256406784773660e+00) (111, -2.34537206091897125759e+01) (112, -8.12592268446645391577e+01) (113, -2.62895050489841253238e+01) (114, -2.47090756686603860715e+01) (115, -2.52732972323161071415e+01) (116, -1.44216344317187221691e+01) (117, -2.63848286221731349599e+01) (118, -1.92810902516081910107e+01) (119, -1.13949760988586618282e+02) (120, -2.28669092775397217565e+02) (121, -8.12965469667873037451e+01) (122, -2.89031338343756694087e+01) (123, -1.24647650497118123170e+00) (124, -2.88849196387649298501e+00) (125, -8.21219122294603387502e+00) (126, -3.61497373747262784605e+01) (127, -5.82544345914365209183e+01) (128, -5.81626368000151074966e+01) (129, -3.61549371498260327940e+01) (130, -2.46212025003707246640e+01) (131, -3.71238531508667861658e+01) (132, -2.61297755607901365238e+01) (133, -1.76321401390604641790e+01) (134, -3.24504806263984093562e+01) (135, -2.47983892790643736248e+01) (136, -3.25925659290195355311e+01) (137, -1.76399954649977352972e+01) (138, -1.13820684336357786037e+02) (139, -1.13798384420805646755e+02) (140, -4.99468946270498559414e+00) (141, 1.21556696352336857103e+01) (142, -3.25466618998587975398e+01) (143, -8.13108120048603666419e+01) (144, -4.80989052513338961603e+01) (145, -8.12270095357856405371e+01) (146, -2.62130692595182210880e+01) (147, -9.33427673063958529553e+00) (148, -1.43884026468632715279e+01) (149, -3.61534783932003804807e+01) (150, -2.49447010687533357043e+01) (151, -1.42094598974000163594e+01) (152, -3.24595414711774239436e+01) (153, -1.13870001226895524837e+02) (154, -1.13867149628930761196e+02) (155, -4.17936148766014312628e+01) (156, -1.18811583925978103693e+00) (157, -4.21499130607895633460e+00) (158, -1.76234525981716778631e+01) (159, -1.92198961893752198193e+01) (160, -2.29329055650547957157e+01) (161, -3.04658976102816438924e+01) (162, -4.46664542047025818761e+01) (163, -4.47239457828642983372e+01) (164, -4.45848753539564270909e+01) (165, -1.13851158507400228359e+02) (166, -6.09923030987185015306e+01) (167, -1.13835138865047170498e+02) (168, -7.43261372643590334519e+01) (169, -1.13944153160088731624e+02) (170, -1.13938677303724958279e+02) (171, -3.05782853477267693165e+01) (172, -3.06243315749434898976e+01) (173, -1.57445100067237344632e+01) (174, -3.04076686183559274923e+01) (175, -2.89478611896174449214e+01) (176, -1.41360507125865169087e+01) (177, 2.73536303292083449179e+00) (178, -1.76350102815203335638e+01) (179, -3.60292747112545796995e+01) (180, -1.13881197735899164059e+02) (181, -6.06574698390246425106e+01) (182, -6.05891463609219584896e+01) (183, -5.82230083852054036697e+01) (184, -4.79819455975391306879e+01) (185, -4.80348120415307917597e+01) (186, -1.08837076430148531614e+01) (187, -2.13950902548378429913e+01) (188, -1.24892472355116055382e+01) (189, -7.43015412810325983628e+01) (190, -1.13959487803512288906e+02) (191, -1.13868135884636117794e+02) (192, -5.82734210214556611618e+01) (193, -4.66012930249521346582e+01) (194, -2.62221863487301618534e+01) (195, -1.09136006775846343686e+01) (196, -1.21785563369094589348e+01) (197, -1.91908837532642913004e+01) (198, -1.32754792589137178282e+01) (199, -3.06116132736770580891e+01) (200, -1.89964824345673974904e+01) (201, -3.05148980783867216360e+01) (202, -5.81973789914490140518e+01) (203, -7.99436174711685154648e+00) (204, -4.17655580538842414740e+01) (205, -5.82531407534123815140e+01) (206, -1.13860019237034990169e+02) (207, -8.13075329521855962867e+01) (208, -6.08459430068534388170e+01) (209, -1.42235365922461696186e+01) (210, -3.43686319478252073623e+01) (211, -1.91573224863055777689e+01) (212, -1.92883229156974387308e+01) (213, -6.09331159328482385718e+00) (214, -5.81640469863058484634e+01) (215, -5.82182286663891233047e+01) (216, -5.82496808527947820266e+01) (217, -1.13909558743470384456e+02) (218, -5.82674676909090436538e+01) (219, -5.82099538206101811966e+01) (220, -2.12553534609025440716e+01) (221, -1.83576692439858462080e+01) (222, -2.89818812707798976191e+01) (223, -2.61877917417822629886e+01) (224, -2.63641506980169459951e+01) (225, -3.61066616939935514097e+01) (226, -1.12509406791984956087e+00) (227, -1.10276759942001731929e+01) (228, -1.97959313314890508195e+01) (229, -1.13784538783364965298e+02) (230, -5.82570880114079869827e+01) (231, -5.81585989727617658218e+01) (232, -1.13896397181087209560e+02) (233, -1.13904066205256654598e+02) (234, -1.13797247477107717373e+02) (235, -4.46718778250457901891e+01) (236, -1.98645164367293958207e+01) (237, -2.84322492955446959328e+00) (238, -1.92186057488158326123e+01) (239, -4.47498988298418183263e+01) (240, -4.45777595875503678258e+01) (241, -1.66327334096071659530e+01) (242, -1.23088606116936833956e+01) (243, -1.05966494619947013689e+01) (244, -2.13933416780775509380e+01) (245, -3.05105709620384644154e+01) (246, -5.82335788517238057693e+01) (247, -1.30706978857113043091e+01) (248, -2.14109532487338505291e+01) (249, -1.14671093340498284618e+01) (250, -7.68283083345455963808e+00) (251, -8.13108415836653364295e+01) (252, -3.24937895997107872859e+01) (253, -3.25326526104153046504e+01) (254, -1.98116992187237386247e+01) (255, -2.48095700077383085613e+01) (256, -8.46835821849004233286e+00) (257, -7.19330378733148023684e+00) (258, -4.65177614146267703887e+00) (259, -7.46741771776768992197e+00) (260, -1.74032019492073541933e+00) (261, -1.39081131829035098413e+00) (262, -1.89085445207323488148e+01) (263, -5.17588216191631467211e+00) (264, -5.63636254597595165450e+00) (265, 5.14076340789452412849e-01) (266, -1.45779324984411684518e+00) (267, -5.06560510482285453193e-01) (268, -1.07802909492048044626e+01) (269, -2.49139958925215765362e+01) (270, -8.13463875176570070380e+01) (271, -1.83473452948276545271e+01) (272, 1.20839386117432567858e+01) (273, -1.18151700126091130372e+00) (274, -4.37803426594475766365e+01) (275, -1.72937910599522872701e+01) (276, -2.28765065147392974154e+01) (277, -4.79352076286174693109e+01) (278, -2.99595393054053626969e+00) (279, -3.12685260402593678819e+00) (280, -8.54024810202577588925e-01) (281, -9.55116083331563503478e-01) (282, -1.34770437991480318551e+00) (283, -1.58680658889098924469e+00) (284, -1.35782298607837970117e+00) (285, -1.84590376414601351485e+01) (286, -3.26215243800223717585e+01) (287, -1.13916743621462060787e+02) (288, -1.98294402581190709611e+01) (289, -5.22826130001710680517e+01) (290, -2.89472014854090708980e+01) (291, -2.22396305316485261017e+01) (292, -6.50182096932757236374e+00) (293, -4.25904647581169282233e+00) (294, -6.65249860559332617527e+00) (295, -3.42028822012431987787e+00) (296, -1.73918489260487874049e+01) (297, -8.40769815208887827396e+00) (298, -2.30729353203289733187e+01) (299, -5.58127807075948911830e+00) (300, -2.40799317723085737342e+00) (301, -3.42851607709643202426e+00) (302, -1.31956537230026538232e+00) (303, -1.49140495969068820337e+00) (304, -2.48977901868192716961e+01) (305, -2.49831809036104246502e+01) (306, -3.06032783464161823872e+01) (307, -1.13809333168202115871e+02) (308, -2.28698789612464821630e+02) (309, -2.22572968119181489044e+01) (310, -4.48143736556815497352e+00) (311, -4.15811930739947133162e+00) (312, -1.72958634538464828267e+01) (313, -1.02366209721951708644e+01) (314, -7.07619443184918495149e+00) (315, -7.25963483117093311137e+00) (316, -1.73180639190488179224e+01) (317, -6.49632921267245855290e+00) (318, -4.01389775568667559469e+01) (319, -5.36531598235788749207e+01) (320, -1.19759502841872453871e+01) (321, -3.61593183519873448972e+01) (322, -1.13924728028708173611e+02) (323, -1.19066091275555372420e+01) (324, -1.58413265092352357755e+01) (325, -7.61597998096958672676e+00) (326, -1.08683942504902386617e+01) (327, -1.37579006391555598299e+01) (328, -6.32351620673379315463e+01) (329, -1.50348701855166559938e+01) (330, -7.87394531893992777327e+00) (331, -1.72691882220917030111e+01) (332, -1.73182030660920460718e+01) (333, -2.59515076895738054930e+01) (334, -6.33413935854277028170e+01) (335, -9.09351162066970530873e+00) (336, -4.72665324945879419261e+01) (337, -1.19984382933718443098e+01) (338, -1.58141562348285642514e+01) (339, -3.06357439347176025990e+01) (340, -7.03168635056975599440e+00) (341, -3.61156006882521936063e+01) (342, -1.10346648641605877827e+01) (343, -1.08780949362297558736e+01) (344, -1.34707048117733751980e+01) (345, -1.34345425098753725734e+01) (346, -5.37756393815699027527e+01) (347, -4.01206511477056650961e+01) (348, -1.72230547783785148397e+01) (349, -8.13226947048864019507e+01) (350, -6.82675815110335815206e+00) (351, -1.92566914087179732462e+01) (352, -5.21813917442129877600e+01) (353, -2.28687857658677017980e+02) (354, -2.28749544658772862249e+02) (355, -2.28723049671463883215e+02) (356, -4.02189959133092074239e+01) (357, -1.38022738112222964624e+00) (358, -3.72601574766842880138e+00) (359, -1.42159214637814397264e+01) (360, -5.37017704512300895203e+01) (361, -5.37856187972548411835e+01) (362, -1.20139625913244962874e+01) (363, -7.01053672270539518507e+00) (364, -1.33947409271813189235e+01) (365, -1.35096368893600260463e+01) (366, -1.50488078725230764121e+02) (367, -2.28761337027959740453e+02) (368, -2.28717304767184174352e+02) (369, -2.28667214975767052465e+02) (370, -2.28807878919951832586e+02) (371, -2.28746860363595402532e+02) (372, -5.37854621562483714570e+01) (373, -4.02119986409369616354e+01) (374, -4.01384305277887492025e+01) (375, -1.81971557708543869580e+01) (376, -8.15862406106073301260e+00) (377, -1.58574559582451311002e+01) (378, -1.57954548863748041043e+01) (379, -1.13849913813405706264e+02) (380, -2.28737474733107006841e+02) (381, -3.04564648606447647694e+01) (382, -3.05874089263944100026e+01) (383, -1.57856181604841676602e+01) (384, -5.17769758637843793281e+01) (385, -2.28767498918883717351e+02) (386, -2.28680233762674248510e+02) (387, -2.28814622745923912817e+02) (388, -1.50468945410740445823e+02) (389, -4.66506069792899147330e+00) (390, -1.39709963066589648584e+00) (391, -1.57877847446182695279e+01) (392, -1.34737657710529123989e+01) (393, -1.34801007985688006130e+01) (394, -8.12247177371940267676e+01) (395, -7.20863308692171322889e+00) (396, -1.43258746623633737016e+01) (397, -1.57218069998601404080e+01) (398, -9.13158596239205877509e+00) (399, -1.57291462687829461942e+01) (400, -2.94651292057585187933e+01) (401, -1.56828579871037927518e+01) (402, -1.57275294331887689481e+01) (403, -5.36834837760153220643e+01) (404, -1.18306018954855680647e+01) (405, -1.09669498973269963216e+01) (406, -8.28608486611497951912e+00) (407, -1.19492591789705038252e+01) (408, -8.23216179940844483554e+00) (409, -1.33223757847762858120e+01) (410, -8.65791329553075073022e+00) (411, -9.24612368869347100997e+00) (412, -2.91335121100097760305e+00) (413, -9.65428708853295347581e+00) (414, -7.13283324176265942640e+00) (415, -7.21768899941637265272e+00) (416, -9.69149336654408557479e+01) (417, -1.01594733712925474833e+02) (418, -2.12365832887487009373e+01) (419, -8.92200962974955125162e+00) (420, 2.75422371298673596129e+00) (421, -4.90861210719301421790e+00) (422, -2.64114277488553073070e+00) (423, -4.57494257753032318448e+00) (424, -4.57163116698402038907e+00) (425, -7.43949844227872780777e+00) (426, -1.58262092774787870297e+01) (427, -1.58325583083609071622e+01) (428, -1.33830988958097254482e+01) (429, -3.09148244525903104218e+00) (430, -3.51937684196478528520e+00) (431, -6.42975766026781414553e+00) (432, -1.33952489003158365932e+01) (433, -7.16393636846735226698e+00) (434, -7.16803212398483502454e+00) (435, -2.12573986276881292667e+01) (436, -1.82237771870655151929e+01) (437, -1.50607887183022569388e+02) (438, -2.28782084942870056921e+02) (439, -2.28827495181076443487e+02) (440, -1.34938724293924128261e+01) (441, -5.22921873237862122608e+00) (442, -4.17553083517150991355e+00) (443, -7.44626286335495990443e+00) (444, -1.94818194372794195601e+01) (445, -4.93309286714587980072e+00) (446, -6.75306958948003632770e+00) (447, -3.53460913741392968035e+00) (448, -2.43671322567267045756e+00) (449, -3.28359299846907237708e+00) (450, -1.34929641961670672146e+01) (451, -1.33480615868783747402e+01) (452, -3.81067276785670685513e+01) (453, -3.08871600895161151357e+01) (454, -1.54436772303326073086e+01) (455, -4.95596143336091810028e+00) (456, -7.42372402258423846888e+00) (457, -2.79673727842421051548e+01) (458, -2.28782105677835858160e+02) (459, -2.28775986188166058355e+02) (460, -9.71130179302104892258e+01) (461, -5.34266799426023020203e+00) (462, -1.14085481461525937164e+01) (463, -1.90840982903703206830e+01) (464, -8.13418411025962484473e+01) (465, -1.50506469738376210898e+02) (466, -3.04846862511881546709e+01) (467, -2.79871514903754707859e+01) (468, -2.28802768164389050298e+02) (469, -2.28850358718149578863e+02) (470, -1.50483437147629331321e+02) (471, -1.50528940994930337638e+02) (472, -7.02212518000260388362e+01) (473, -3.08161530240411281056e+01) (474, -3.08612148917252540059e+01) (475, -3.08160598470801829762e+01) (476, -3.08952319740290164418e+01) (477, -2.78227864670009132908e+01) (478, -2.78546296226233955906e+01) (479, -1.50486581858885358542e+02) (480, -9.69034671362205131118e+01) (481, -4.60907122912608855358e+01) (482, -2.28818210189305460744e+02) (483, -6.42920071143100813060e+01) (484, -1.50571410712492536277e+02) (485, -8.12503854045829427832e+01) (486, -1.86348269812471833973e+01) (487, -6.45836379223500784974e+01) (488, -1.50455941688907216758e+02) (489, -2.28834234596304810339e+02) (490, -2.28706686423234856420e+02) (491, -2.28804730047546541982e+02) (492, -2.28823736787848389440e+02) (493, -2.28670032144598877721e+02) (494, -2.28756127850227272802e+02) (495, -2.28766621717326557928e+02) (496, -2.28737007000558293157e+02) (497, -2.28802541875355160528e+02) (498, -2.28847151794545567327e+02) (499, -2.28806049888096964651e+02) (500, -2.28806329798959410482e+02) (501, -2.28710785404853737646e+02) (502, -2.28696159184985077673e+02) (503, -2.28673267648630059057e+02) (504, -7.27073883491226258258e+00) (505, -8.13547860766014707679e+01) (506, -5.55894356747883833236e+00) (507, -6.90149834588931128110e+01) (508, -4.59748285683595412365e+01) (509, -8.12886801148018491858e+01) (510, -2.28851172209792053991e+02) (511, -2.28777158008031761938e+02) (512, -1.50599162672352861136e+02) (513, -7.02370661937848126399e+01) (514, -1.28046525244486730344e+02) (515, -1.50493971225512098044e+02) (516, -2.28796603393815672689e+02) (517, -4.44722107962006347748e+01) (518, -6.02427978300133215583e+00) (519, -5.99887863405623900093e+00) (520, -5.88174619012155996955e+00) (521, -1.01699875620855848979e+02) (522, -2.28731156663112557226e+02) (523, -2.28675903157405770116e+02) (524, -2.28830280833952343755e+02) (525, -1.49867646712520929952e+01) (526, -6.90818308056161924924e+01) (527, -1.73795019058399518030e+01) (528, -1.98844945241248254320e+01) (0, -2.48383661738577821154e+01) (1, -1.19181571731327196062e+00) (2, 1.13117267771367013829e+00) (3, 1.25048401786688745396e+00) (4, 2.58502473801973309264e+00) (5, 4.32151395717489528181e+00) (6, -9.74416080887870705851e+00) (7, -9.76082794268632980561e+00) (8, -5.19890625000028361313e+00) (9, -3.96913785199976709706e+00) (10, -3.64986964805357905206e+00) (11, -1.38117985589515979150e+00) (12, 1.05388456798273733028e+00) (13, -1.65812815907042243602e+00) (14, -3.41509944554333877420e+00) (15, -3.73509629962589784213e+00) (16, -4.58824938170969520712e+00) (17, -3.83919550069776072121e+00) (18, -2.61403594383536130863e+01) (19, -2.41927362441030027185e+01) (20, -2.68179908580553316710e+01) (21, -1.34251584776244996533e+01) (22, -4.50418178991121820332e+00) (23, -5.22814538927962235704e+00) (24, 4.20520995447265910627e+00) (25, -5.18251618968536309495e+00) (26, -4.47994748011869958759e+00) (27, -4.49094026789707712055e+00) (28, -3.64812160773508997735e+00) (29, -5.52637901116035656912e+00) (30, 4.24336735592589775479e-02) (31, -6.38479896212172493009e-01) (32, -7.07173094475817665128e-01) (33, -3.62012476964228602228e+00) (34, -2.13814434733932934307e+01) (35, -9.46869140124011465787e+00) (36, -2.12340701621716938519e+01) (37, -2.14001387682503185772e+01) (38, -3.60719015466604062681e+01) (39, -3.61053592430982419614e+01) (40, -1.06506216512486240333e+01) (41, -5.45293043781230046818e+00) (42, -8.60134426688499686975e+00) (43, -1.46594077510845477441e+00) (44, -5.16538301708390168443e+00) (45, -5.15397429319312028184e+00) (46, -5.20751576723744324937e+00) (47, -4.44784290597481302143e+00) (48, -1.51872157648925956153e+01) (49, -7.68752289497328611390e+00) (50, -3.24395219995320687190e+01) (51, -8.94545462952377690158e+00) (52, -3.24854288710893044367e+01) (53, -3.26138709499181160822e+01) (54, -5.82426397784592069229e+01) (55, -4.47471439478637833531e+01) (56, -2.13374378409927807354e+01) (57, -2.13004717853611431622e+01) (58, -2.49878525592057272320e+01) (59, -1.33834958031392847744e+01) (60, -9.31676657723946100020e+00) (61, -1.12092534097155880346e+01) (62, -1.13969033675512623205e+01) (63, -2.09976037670796209511e+01) (64, -1.12186475040635418310e+01) (65, -1.36761334700596148828e+00) (66, -5.53199659887859418461e+00) (67, -6.18619741325931027376e+00) (68, -1.32639426155102069238e+00) (69, -1.29775523614437293674e+01) (70, -2.36190060342856575915e+01) (71, -1.37144965840589816430e+00) (72, -2.89083984295266169795e+01) (73, -2.89359390685694712886e+01) (74, -4.46752424923421997960e+01) (75, -3.25060668303311715022e+01) (76, -2.12598568004315815472e+01) (77, -1.13892880695185017004e+01) (78, -1.12394884320220302953e+01) (79, -1.98884791244303826829e+01) (80, -2.48493378094999357586e+01) (81, -5.81872146560789502701e+01) (82, -5.81971811487318433365e+01) (83, -4.47240805489661354954e+01) (84, -3.25272723822534928217e+01) (85, -3.60181514116558858518e+01) (86, -2.62707902149794847446e+01) (87, -1.76653888169102337713e+01) (88, -1.32197192473423297265e+00) (89, -1.97857383709883336564e+01) (90, -1.98343993198608998796e+01) (91, -8.64132451822705505151e+00) (92, -1.98614116754865293046e+01) (93, -1.85897819250310938344e+01) (94, -9.89874682381318393709e+00) (95, -6.79370550525322958180e+00) (96, -2.12513653439229450726e+01) (97, -3.60368684920105764036e+01) (98, -8.13177567357382429236e+01) (99, -1.13862462990217878200e+02) (100, -8.13798821130952489966e+01) (101, -8.12114240536651266211e+01) (102, -3.25833840234816918269e+01) (103, -3.25461070178688416377e+01) (104, 1.20607047808144542955e+01) (105, -2.64483958209860965383e+01) (106, -5.81766547842861569961e+01) (107, -1.56982152457456631822e+01) (108, -1.00103232915656406021e+01) (109, 2.68609060466888394103e+00) (110, -2.76142950533152342629e+00) (111, -2.89608288804429072627e+01) (112, -8.12291544685325277442e+01) (113, -2.62631809072135240513e+01) (114, -2.46791996749317483761e+01) (115, -1.58619815920615589988e+01) (116, -4.93250803832729900478e+00) (117, -2.90472590053813952693e+01) (118, -2.63342670376408740651e+01) (119, -1.13857064932816697933e+02) (120, -1.50504942175638745994e+02) (121, -8.13134418064913404578e+01) (122, -2.90546281660335559138e+01) (123, -1.21184134857813008423e+00) (124, -2.77540411232233763528e+00) (125, -2.86716352952838660073e+00) (126, -3.25734554803610691920e+01) (127, -4.16758936840626930120e+01) (128, -5.82639668940545476516e+01) (129, -3.60097314211163350706e+01) (130, -2.45484469326412515500e+01) (131, -2.63036694520650655704e+01) (132, -2.61776791730461866337e+01) (133, -2.46515199819779233792e+01) (134, -3.25677386461437592402e+01) (135, -2.13779858154004536175e+01) (136, -3.26066532670200714961e+01) (137, -1.76058023962549832220e+01) (138, -1.13937685366951896526e+02) (139, -1.13834557838969899990e+02) (140, -5.16118953190597906655e+00) (141, 1.21891555395696613573e+01) (142, -3.25491050271929154292e+01) (143, -8.13724938268026960486e+01) (144, -4.79852667683460154535e+01) (145, -8.13050579363665235633e+01) (146, -2.61725963422594816166e+01) (147, -1.30111543417957378210e+01) (148, -1.43389588990149992043e+01) (149, -1.56954508717279477281e+01) (150, -1.91471912613156867167e+01) (151, -1.41615498329411693135e+01) (152, -3.24351581646741280451e+01) (153, -8.12676810110172880286e+01) (154, -4.16929934817883705023e+01) (155, -3.60980050506625005369e+01) (156, -1.17325354029432693537e+00) (157, -4.22433717281870624305e+00) (158, -1.76994412261418965215e+01) (159, -1.93607874321475605939e+01) (160, -2.28919550804809546207e+01) (161, -2.48291109465152288749e+01) (162, -4.46931850252391953404e+01) (163, -4.45887997833730835850e+01) (164, -8.12169874319991720313e+01) (165, -1.13832810260587407925e+02) (166, -6.08133359879058374986e+01) (167, -1.13934943605446292736e+02) (168, -7.43443598422289255723e+01) (169, -1.13811061807208730556e+02) (170, -1.13872597985201551296e+02) (171, -3.05831517987517784718e+01) (172, -3.06147614680795143727e+01) (173, -1.56997254161218133817e+01) (174, -3.61196951175663301115e+01) (175, -2.90903033489721316585e+01) (176, -1.15299054499250726025e+01) (177, -1.76221402082018521185e+01) (178, -1.77550207916073468084e+01) (179, -2.98262023207961703974e+01) (180, -1.13916273329638912060e+02) (181, -3.61572034823331662778e+01) (182, -6.05906084330559764339e+01) (183, -5.81958684756399549087e+01) (184, -4.80416512274839320185e+01) (185, -1.33876245561430060604e+01) (186, -1.10444445838159950313e+01) (187, -2.13008430328911266827e+01) (188, -1.24762310712087796105e+01) (189, -4.18013676452967857244e+01) (190, -1.13947777487569524624e+02) (191, -1.13852813475065900661e+02) (192, -5.81497756077886975845e+01) (193, -3.60818976978587997451e+01) (194, -2.61191027232943326908e+01) (195, -1.07871807310333114316e+01) (196, -1.22386435855924347038e+01) (197, -1.92771304002049994608e+01) (198, -1.32228437531182390074e+01) (199, -3.05667984374432037953e+01) (200, -1.89935748976435121449e+01) (201, -1.89614241969551500233e+01) (202, -1.57141905156629331231e+01) (203, -1.22031574565859113335e+01) (204, -2.12849087518399677776e+01) (205, -5.81632990970255292495e+01) (206, -1.13891301192575170376e+02) (207, -8.12635744074544561499e+01) (208, -6.08346124768060221299e+01) (209, -1.41916153955172248402e+01) (210, -3.44691314958431860305e+01) (211, -1.92531939459982943674e+01) (212, -1.91998496776465010782e+01) (213, -5.47493936382948209740e+00) (214, -5.81359851195455945572e+01) (215, -5.81824823304058469375e+01) (216, -5.82610164045335210403e+01) (217, -1.13826065771513654568e+02) (218, -5.82010748370529569229e+01) (219, -5.81452835931421674331e+01) (220, -1.06520981729131278826e+01) (221, -1.83691820226852442488e+01) (222, -2.90770371357338923701e+01) (223, -2.62723412135182172733e+01) (224, -2.63869021262038394582e+01) (225, -3.60898496674928495054e+01) (226, -1.16536766724646012605e+00) (227, -1.09060993199176241575e+01) (228, -1.98568283167218808671e+01) (229, -8.12880542809328687781e+01) (230, -5.82103883086682714065e+01) (231, -5.82767087540568269333e+01) (232, -1.13967395290964319088e+02) (233, -1.13969191462033464290e+02) (234, -1.13957430802517606594e+02) (235, -3.60909381302628347044e+01) (236, -1.57110818876544282574e+01) (237, -1.24481939186350265558e+00) (238, -1.93674261043503861401e+01) (239, -4.45735497263910431798e+01) (240, -3.60961226093206235532e+01) (241, -1.15282478791900437898e+01) (242, -8.33719890419516396207e+00) (243, -1.05335489004951057268e+01) (244, -1.24866028605449841393e+01) (245, -3.05392601378826569203e+01) (246, -5.82124651356579221329e+01) (247, -1.17947765871829748363e+01) (248, -2.13943769437020741009e+01) (249, -2.61769215235052854496e+01) (250, -7.68914302494091828066e+00) (251, -3.60718352566289794936e+01) (252, -3.25149356959999451533e+01) (253, -3.25350774540246376887e+01) (254, -1.97660629969572667619e+01) (255, -2.48016045026151701336e+01) (256, -8.59222000074283087656e+00) (257, -7.33810064307917908621e+00) (258, -4.65244730466400913116e+00) (259, -7.54760442007872800474e+00) (260, -1.63836744095965047840e+00) (261, 2.58528653652074780211e+00) (262, -1.66029069547889172043e+01) (263, -1.82870159351504324441e+00) (264, -3.36794559116715452873e+00) (265, 4.64094400251761241005e-01) (266, -5.95528809811566750554e-01) (267, -5.48634125377629233711e-01) (268, -6.85548830034444378612e+00) (269, -2.48524928323595091229e+01) (270, -4.46336456997038979466e+01) (271, -1.84217168450598265395e+01) (272, 2.63569020505118079001e+00) (273, -1.11410717295566685792e+00) (274, -4.36234376342038174812e+01) (275, -1.73910383922868092554e+01) (276, -2.29123231991045699374e+01) (277, -4.81064020329811015131e+01) (278, -2.75899055243885982236e+00) (279, -2.76293661834156978330e+00) (280, -9.35568091876962215636e-01) (281, -8.53144173927762983212e-01) (282, -9.54315421588876278136e-01) (283, 4.54915534550801081703e-01) (284, -1.34498757286083514551e+00) (285, -1.83343039401118303999e+01) (286, -3.26222643195331940547e+01) (287, -8.13607301498016965979e+01) (288, -1.98794043619668130418e+01) (289, -6.09305310316186918840e+01) (290, -2.89452299574749964961e+01) (291, -1.41128851066242404499e+01) (292, -6.55224328760731378196e+00) (293, -4.30692515842506562507e+00) (294, -6.54943783108818688987e+00) (295, -3.47790507979877361322e+00) (296, -1.73585852352791150111e+01) (297, -7.35889242700805024100e+00) (298, -1.73404387948923428553e+01) (299, -4.42933956030097508716e+00) (300, -2.32970306094019630194e+00) (301, -3.42198798268553572299e+00) (302, -1.40197803987276370385e+00) (303, -6.79585126061578126411e+00) (304, -2.48388506702749296551e+01) (305, -2.49868808395831152325e+01) (306, -3.05881711394159268025e+01) (307, -1.13902522221439554073e+02) (308, -2.28727093846611893468e+02) (309, -2.23664226048983429962e+01) (310, -4.35854378626393668128e+00) (311, -4.28580768549509816268e+00) (312, -1.73543083226197083491e+01) (313, -1.03194729856043085903e+01) (314, -6.18763412430586257074e+00) (315, -3.71630814574456014299e+00) (316, -1.73916859073453267115e+01) (317, -4.95161407247673057697e+00) (318, -4.02192063996616511190e+01) (319, -5.36593400950851844300e+01) (320, -1.18476639634711027327e+01) (321, -3.60512346344623395566e+01) (322, -1.13961796313756181576e+02) (323, -1.19131995162708044234e+01) (324, -1.58060710920074907193e+01) (325, -1.07063552246521460631e+01) (326, -1.08615959980268979024e+01) (327, -1.36997418689519694368e+01) (328, -3.45064507797756334639e+01) (329, -1.51742689764125948670e+01) (330, -7.94942811954284067610e+00) (331, -1.73087688131146748560e+01) (332, -1.73491826100163777369e+01) (333, -1.38434559816440536650e+01) (334, -6.33240139587959660616e+01) (335, -9.19405938139472667103e+00) (336, -1.65936533634898601974e+01) (337, -1.18643999940497160139e+01) (338, -3.06111163721053074482e+01) (339, -3.06152505539922188404e+01) (340, -6.99943790571454282912e+00) (341, -3.61159580143723317747e+01) (342, -1.10402402751822972249e+01) (343, -1.09839795031328701924e+01) (344, -1.34725386194504057613e+01) (345, -1.34553841530895983425e+01) (346, -2.48182229183284803753e+01) (347, -1.34180623396850382534e+01) (348, -1.73751694342010338801e+01) (349, -8.13135942155680311316e+01) (350, -5.32057619547248883407e+00) (351, -1.91589616587403845926e+01) (352, -3.25784097215772519007e+01) (353, -2.28768146925680554205e+02) (354, -2.28771235474460041814e+02) (355, -2.28680463881306565099e+02) (356, -4.00794936189476160848e+01) (357, -1.36516338748943621972e+00) (358, -3.74549656468836822398e+00) (359, -1.42298880539475316453e+01) (360, -5.36381591226282523621e+01) (361, -5.36701578016701148499e+01) (362, -1.18609431481701612654e+01) (363, -7.01284833984139677199e+00) (364, -1.19562415874344587507e+01) (365, -1.34564773730552946773e+01) (366, -6.89090739846990629758e+01) (367, -1.13817032717400266506e+02) (368, -2.28704978437237656408e+02) (369, -2.28698421538882172399e+02) (370, -1.13817272268467618801e+02) (371, -1.13851688929134084560e+02) (372, -5.37491875629249022950e+01) (373, -4.01448285350624232137e+01) (374, -4.02105529153767733419e+01) (375, -1.83581996606749626721e+01) (376, -1.18233938672717275864e+01) (377, -1.58504047734716859708e+01) (378, -1.56862173942903009305e+01) (379, -1.13895283311837388851e+02) (380, -2.28662716613225853735e+02) (381, -2.49385458610622450237e+01) (382, -2.49637543938724562054e+01) (383, -1.57233149675706354031e+01) (384, -2.39980331409321010483e+01) (385, -5.17956587534247105964e+01) (386, -5.05078472349255136464e+01) (387, -2.28828663633279717260e+02) (388, -4.45730535326244492467e+01) (389, -1.24994153093360060858e+00) (390, -1.37189007712614352563e+00) (391, -1.56908870754817453275e+01) (392, -1.33146617516494547573e+01) (393, -1.34188016086436068264e+01) (394, -8.13692853981814039344e+01) (395, -7.15740948105051266737e+00) (396, -1.42107162944613332201e+01) (397, -1.58551558969596353421e+01) (398, -1.57384187547543969998e+01) (399, -1.33796958282209192959e+01) (400, -8.13184617022237432593e+01) (401, -1.34467357650018488613e+01) (402, -1.57444479433873620877e+01) (403, -3.06485533156065415028e+01) (404, -1.19917117974502325239e+01) (405, -9.10669253154254931815e+00) (406, -8.69759163189921657988e+00) (407, -1.18500481492621183577e+01) (408, -9.31992050985692621623e+00) (409, -1.33362880900121485439e+01) (410, -8.68198993241138694543e+00) (411, -7.13552714870932813795e+00) (412, -3.00352882896810635671e+00) (413, -5.44256042171427800724e+00) (414, -7.04019882464601742811e+00) (415, -7.11113841766311871595e+00) (416, -9.69191315609677417342e+01) (417, -2.28704942599944985204e+02) (418, -2.11215249821440771427e+01) (419, -8.93702928497721238443e+00) (420, 2.71901591987016644225e+00) (421, -1.15303579634229524942e+01) (422, -4.04257741489009969627e+00) (423, -4.47142040346997760025e+00) (424, -4.47441806261676333634e+00) (425, -7.37870545224986962296e+00) (426, -1.56783079771378961453e+01) (427, -1.58556386796811548123e+01) (428, -1.20049057251555204573e+01) (429, -4.61651942411542126621e+00) (430, -3.35151415839009558795e+00) (431, -6.56190596335934017702e+00) (432, -1.34116876452780520168e+01) (433, -7.04987924480631100721e+00) (434, -7.21003211969330060072e+00) (435, -2.11513972654835775700e+01) (436, -1.82588896202010246839e+01) (437, -1.50542411853265832633e+02) (438, -1.50516902048778604239e+02) (439, -2.28794793685041582876e+02) (440, -8.24321881860129224151e+00) (441, -5.62474186657355090802e+00) (442, -7.17790284687473523206e+00) (443, -1.37099520025095564790e+01) (444, -1.92971828593155905196e+01) (445, -9.49595962104085700162e+00) (446, -6.79269115124570710407e+00) (447, -3.69848477307426026783e+00) (448, -2.39469767315191850443e+00) (449, -6.31901054160050534847e+00) (450, -1.33267963632560526577e+01) (451, -1.33652815922714029995e+01) (452, -7.02178891667381321895e+01) (453, -3.09004457636708735890e+01) (454, -1.53360466794712486660e+01) (455, -7.57566100441125911402e+00) (456, -6.43449086058328703075e+01) (457, -1.36888867375692946382e+01) (458, -1.50592831951272557944e+02) (459, -2.28748753146343148046e+02) (460, -4.42255809012301384087e+01) (461, -5.28466610720697893555e+00) (462, -9.03060934450511787475e+00) (463, -1.90837143992050641828e+01) (464, -8.12898339340648306006e+01) (465, -1.50622073922944139213e+02) (466, -3.06440638037570671770e+01) (467, -6.45058091052805480103e+01) (468, -2.28808509339653170400e+02) (469, -2.28742280461900151067e+02) (470, -1.50612324391198228568e+02) (471, -1.50536861878526281089e+02) (472, -7.01476363756910359371e+01) (473, -3.07617125182384967275e+01) (474, -3.08796459629172801442e+01) (475, -3.07870750843519687123e+01) (476, -3.07482682286734103627e+01) (477, -2.78030435609073158787e+01) (478, -2.78355457054824348972e+01) (479, -8.12928706268033636206e+01) (480, -9.67808197837038619582e+01) (481, -2.60124543391131055614e+01) (482, -1.01530062673344176005e+02) (483, -8.12132984111270559424e+01) (484, -8.12391281137427938575e+01) (485, -8.13590153167209280127e+01) (486, -1.85777016512758699207e+01) (487, -6.44782651581799086671e+01) (488, -1.50456107911360334128e+02) (489, -2.28827722490839875036e+02) (490, -2.28657714174203789526e+02) (491, -2.28728076026849663549e+02) (492, -2.28699544594697869115e+02) (493, -2.28771829941384709173e+02) (494, -1.02751717595898014679e+02) (495, -2.28733212069682991796e+02) (496, -2.28821220018975651556e+02) (497, -2.28770707079284107976e+02) (498, -2.28799640060477173620e+02) (499, -1.01520165694608252238e+02) (500, -2.28746377856545365148e+02) (501, -2.28698476255946076208e+02) (502, -2.28816371661685622030e+02) (503, -2.28684356675558007055e+02) (504, -8.71910265614160984171e+00) (505, -8.13836630443296087378e+01) (506, -5.61547512006753102298e+00) (507, -6.90367712289856001462e+01) (508, -2.60174708150290143749e+01) (509, -8.13265040712616098517e+01) (510, -2.28758358636014378362e+02) (511, -2.28659427494816696935e+02) (512, -1.50502448049080442161e+02) (513, -7.01545627036348378169e+01) (514, -6.41014383121440545210e+01) (515, -1.50579931021374534339e+02) (516, -2.28722789810113823705e+02) (517, -4.44874498188728111359e+01) (518, -5.94648855411091314949e+00) (519, -5.96180363230982290901e+00) (520, -4.51947190975087753628e+00) (521, -5.37153222303214477051e+01) (522, -2.28772934981696522527e+02) (523, -2.28843997494392311864e+02) (524, -2.28791669272892391973e+02) (525, -1.48421887550214144369e+01) (526, -4.01402206936899332845e+01) (527, -1.73284252552204449671e+01) (528, -1.98391849022841100236e+01) (0, -2.49195124140921571154e+01) (1, -1.01661491969583650530e+00) (2, 1.13087473644617975133e+00) (3, 4.31935404876100825788e+00) (4, -1.32203809645221848079e+00) (5, -9.40605567140827547590e-01) (6, -2.58274453219898303402e+00) (7, -2.81616386258452555680e+00) (8, -3.11475836468891564834e+00) (9, -2.59407855249011065624e+00) (10, -2.61052763900267725816e+00) (11, -1.80741107347141505279e+00) (12, -2.15872813384716755181e+00) (13, -1.41129784638026856136e+00) (14, -1.97645428999816341609e+00) (15, -2.00586052462016528608e+00) (16, -3.72724516897927005132e+00) (17, -3.81099257582035555458e+00) (18, -2.61338618615208417850e+01) (19, -1.47021777224609824231e+01) (20, -1.24141643872842664109e+01) (21, -7.06740912825606404368e+00) (22, -3.61727939653603591807e+00) (23, -3.69474614519087829478e+00) (24, -1.01282870893026388792e+00) (25, -2.57694331980311419628e+00) (26, -2.61891748449313288560e+00) (27, -2.47196425190674906602e+00) (28, -2.21930514711486637225e+00) (29, -3.36674965866823772132e+00) (30, -1.10911736760879553465e+00) (31, -1.34647111695454735347e+00) (32, -9.86387611670742403547e-01) (33, -2.47178554228055125108e+00) (34, -5.54415110271823596833e+00) (35, -4.88194955127901319969e+00) (36, -5.38591731857907962677e+00) (37, -5.35886408161771488068e+00) (38, -3.60897432433996030454e+01) (39, -3.61708050015005895261e+01) (40, -1.05974898920819065040e+01) (41, -3.80557395440663537300e+00) (42, -5.02747143152741315930e+00) (43, -1.34427003724586779931e+00) (44, -3.59083207059113540538e+00) (45, -3.59446364748684921153e+00) (46, -2.59795835292899157665e+00) (47, -2.07823925032305423244e+00) (48, -3.19822004386206248938e+00) (49, -4.19430316855347928851e+00) (50, -7.41355340346964908349e+00) (51, -4.78766735926248365729e+00) (52, -1.51051986186861952888e+01) (53, -9.70988605877558974555e+00) (54, -2.01815665120475138394e+01) (55, -9.56923923184703717482e+00) (56, -5.42288003635060977814e+00) (57, -1.03565514684023050052e+01) (58, -1.19772853487308683640e+01) (59, -7.06356593156053769178e+00) (60, -5.29374462824598612798e+00) (61, -6.21028807649852243600e+00) (62, -5.73418115312038167986e+00) (63, -3.64806204834146852178e+00) (64, -6.26501069108487573800e+00) (65, -3.58645368913877715666e-01) (66, -5.45487211872050359318e+00) (67, -2.85276391257872674601e+00) (68, -2.01064075841593448146e+00) (69, -3.97400037414472473429e+00) (70, -1.13420796891560176078e+01) (71, 2.69356676310899700866e+00) (72, -1.84482730053607966170e+01) (73, -1.50647348954439124213e+01) (74, -3.54380953502503857067e+01) (75, -1.65023149325817861666e+01) (76, -1.04363402501048234683e+01) (77, -6.32771276573182550607e+00) (78, -9.76875328978698043159e+00) (79, -9.82409795334737090400e+00) (80, -1.19063348853166761643e+01) (81, -5.83036456613780416092e+01) (82, -3.05683400594262550953e+01) (83, -2.48154871843425794964e+01) (84, -3.60974746810827085142e+01) (85, -3.61129279414746591215e+01) (86, -2.61799730130968839603e+01) (87, -1.77006885948948529119e+01) (88, 2.65090966344478573546e+00) (89, -9.82946840634743956855e+00) (90, -5.25628215972090018226e+00) (91, -8.57387128656454322595e+00) (92, -9.74300399383704451850e+00) (93, -8.81220855771533173595e+00) (94, -5.73297822280870672529e+00) (95, -4.41062317057168939982e+00) (96, -2.12173656922524891399e+01) (97, -4.45870187667848725255e+01) (98, -8.12832882264814031714e+01) (99, -1.13950207293265535213e+02) (100, -8.12983653405866277808e+01) (101, -8.13589934269151342505e+01) (102, -3.25818460858107457057e+01) (103, -3.24980104877293953791e+01) (104, 1.22191482540939304613e+01) (105, -1.42587406744946392223e+01) (106, -5.83047721072079099258e+01) (107, -1.55660312841754002733e+01) (108, -9.99455997153685871126e+00) (109, 2.62015879274013485656e+00) (110, -2.87730859024644614053e+00) (111, -1.92626693467333893750e+01) (112, -8.13576423982343328589e+01) (113, -2.61596692719994337040e+01) (114, -2.45592021735584573605e+01) (115, -1.58639406402731335533e+01) (116, -3.57406790165365961798e+00) (117, -7.58980690868745622168e+00) (118, -7.46155567779064732292e+00) (119, -1.13950088829034044124e+02) (120, -2.28779068053774750524e+02) (121, -8.12509200433454168433e+01) (122, -3.05264990049051618826e+01) (123, -6.71797543021152065990e+00) (124, -7.01435789788317665128e-01) (125, -2.91384145049572707009e+00) (126, -3.24892860664666542903e+01) (127, -5.81444572343470014175e+01) (128, -5.81733487381578839859e+01) (129, -3.59903876873287984495e+01) (130, -2.46383114548599557736e+01) (131, -1.15488521012944058697e+01) (132, -2.61695030102072507816e+01) (133, -2.46348434405600862362e+01) (134, -3.24850161238253960505e+01) (135, -2.12604915153926334881e+01) (136, -1.97884557765459661027e+01) (137, -1.77709391582183506841e+01) (138, -1.13791038356953336574e+02) (139, -1.13938337899976446010e+02) (140, -8.32148096565279793424e+00) (141, -1.15560771931902328546e+00) (142, -3.26056024669350037470e+01) (143, -8.13248857455513132209e+01) (144, -4.80363293299176135065e+01) (145, -8.13135071927866590613e+01) (146, -2.61792146333990842777e+01) (147, -1.30446420976009918036e+01) (148, -1.43676083707151907021e+01) (149, -1.56070937882285161180e+01) (150, -1.91296537568811011454e+01) (151, -1.42087455357323833027e+01) (152, -3.24533118768275627986e+01) (153, -8.13769538412055624121e+01) (154, -4.16412885088059638861e+01) (155, -3.60927600952420064573e+01) (156, -1.09548560360429902971e+00) (157, -4.22018422664456149818e+00) (158, -1.77008779663018849249e+01) (159, -1.93082311446502785657e+01) (160, -2.29784181816891646122e+01) (161, -2.48144270293504263236e+01) (162, -2.49373466863898798351e+01) (163, -2.48092976741163298016e+01) (164, -4.46525033725144524510e+01) (165, -1.13875273205571843960e+02) (166, -6.08879838019412531480e+01) (167, -1.13940748423569871761e+02) (168, -7.43059083531678084000e+01) (169, -4.81134550431467928888e+01) (170, -4.81142767080761828424e+01) (171, -3.06396063007978867176e+01) (172, -3.06455511861113976124e+01) (173, -1.57825682876685586820e+01) (174, -3.60595905351075955991e+01) (175, -2.89126481065886515864e+01) (176, -1.14782296683174447338e+01) (177, -8.62261374675201075490e+00) (178, -1.76871862727574971075e+01) (179, -2.99313589585243846614e+01) (180, -1.13883835926883890011e+02) (181, -3.59817813875708409910e+01) (182, -6.06714337693334613277e+01) (183, -5.82274759470464147171e+01) (184, -4.80681432196595110895e+01) (185, -1.32385294306466203551e+01) (186, -1.10026942496127517757e+01) (187, -9.55399300121787753426e+00) (188, -1.25108537255275891198e+01) (189, -3.60459101589951345090e+01) (190, -1.13873312048845960476e+02) (191, -1.13912181139224244930e+02) (192, -5.81420324428917325577e+01) (193, -3.61426207045841110244e+01) (194, -2.62905269706187993961e+01) (195, -1.09144035596003394772e+01) (196, -1.22725098569690445061e+01) (197, -1.92676851725224089762e+01) (198, -1.32769427168557268004e+01) (199, -3.06080510952143143300e+01) (200, -9.39688995501784596343e+00) (201, -6.82458043170932437960e+00) (202, -8.13138763056833013820e+00) (203, -3.59618370342461624034e+00) (204, -2.13738034841364346050e+01) (205, -5.82170091553570188125e+01) (206, -1.13796154938870145656e+02) (207, -8.13405627729556215399e+01) (208, -6.09781158968609346971e+01) (209, -8.76525966744928020091e+00) (210, -3.44593108185031553603e+01) (211, -1.09624861036366851863e+01) (212, -1.91003503253701758524e+01) (213, -5.38947201036630918480e+00) (214, -2.49011938429418542285e+01) (215, -5.82780483051182187637e+01) (216, -5.82383290960432447037e+01) (217, -1.13920520320766641476e+02) (218, -5.82986942588330663284e+01) (219, -5.82349735259057439407e+01) (220, -1.06707362212341365648e+01) (221, -1.84188618608061815962e+01) (222, -1.73238028516674305024e+01) (223, -2.63062075519500524479e+01) (224, -1.93320680255725960706e+01) (225, -3.61281703988644906644e+01) (226, -1.02185944156706254304e+00) (227, -1.09632098977393539485e+01) (228, -1.13827812092623066320e+01) (229, -8.12550690034589422339e+01) (230, -5.82268405019284642776e+01) (231, -2.57599125365905514684e+01) (232, -4.90121335698214224408e+01) (233, -1.13940858736866189815e+02) (234, -4.90820911018100431988e+01) (235, -3.61119706126484700803e+01) (236, -1.58040432436982438702e+01) (237, -1.24640001763597885187e+00) (238, -6.57709265772927054172e+00) (239, -1.09658815865344436702e+01) (240, -3.60493166613015958433e+01) (241, -1.16607652467914384431e+01) (242, -8.35660192970309090299e+00) (243, -8.41237018112215828580e+00) (244, -1.24522677688348935021e+01) (245, -3.04690776654152344349e+01) (246, -2.13099251461245806638e+01) (247, -6.56754414534439145967e+00) (248, -2.14149520125931225323e+01) (249, -1.14744024242740945141e+01) (250, -7.85772942062182178091e+00) (251, -3.61034482638168228164e+01) (252, -1.40430294762264438191e+01) (253, -3.24634890718997368708e+01) (254, -1.97801115435099248430e+01) (255, -2.49154889516202970867e+01) (256, -8.44823670369283341586e+00) (257, -7.21102478466500684817e+00) (258, -4.68852838033234409210e+00) (259, -7.56222311113569478636e+00) (260, -2.07369760359607191447e+00) (261, -4.39436887006033172209e-01) (262, -8.50696424512848814459e+00) (263, -1.73887734168446539407e+00) (264, -3.49168801511878035271e+00) (265, 5.25062937135353902107e-01) (266, -1.40602455204586473947e+00) (267, -4.30032721247170401924e-01) (268, -6.72177579256007717845e+00) (269, -1.10117853847271831569e+01) (270, -4.47366179240586419041e+01) (271, -1.82760113425795580611e+01) (272, 2.70808091412353224570e+00) (273, -1.24331209438005574341e+00) (274, -4.37705060676673909370e+01) (275, -1.73701866721623261469e+01) (276, -2.30575630812757239596e+01) (277, -2.28934466465227828280e+01) (278, -2.83281492085612285337e+00) (279, -2.72909405471241939267e+00) (280, -9.43597776301362545226e-01) (281, -1.13703300983670985147e+00) (282, -8.83153644807794568905e-01) (283, -5.66280441816543023137e-01) (284, 2.60447893038990940795e+00) (285, -1.83475063912813212141e+01) (286, -1.98242036697005872270e+01) (287, -8.13656819770297659034e+01) (288, -1.99047693159913663408e+01) (289, -6.08393588989776148424e+01) (290, -2.90154448250668544063e+01) (291, -1.42141449267874904194e+01) (292, -6.62599303845989950901e+00) (293, -4.41901962779352341926e+00) (294, -6.52106172119009830368e+00) (295, -3.56073068089969568817e+00) (296, -1.74083446232490857142e+01) (297, -7.26497025899161563700e+00) (298, -1.73905007285886128443e+01) (299, -4.42023611310210728931e+00) (300, -2.32795008833735206366e+00) (301, -3.35977273642536911069e+00) (302, -1.35034617943775470117e+00) (303, -6.81919130702157350044e+00) (304, -2.49150374091832205181e+01) (305, -2.48573271415798231487e+01) (306, -3.05790472589997719410e+01) (307, -1.13957448348634912350e+02) (308, -1.13790933214359952785e+02) (309, -1.23586215558231309330e+01) (310, -4.04899321656415178694e+00) (311, -3.66088312445969377151e+00) (312, -1.72983361227326675191e+01) (313, -1.03947607002048734159e+01) (314, -6.14825243398250975702e+00) (315, -4.28544491104671632087e+00) (316, -1.72900594292097373739e+01) (317, -4.91555334434400581500e+00) (318, -4.01465593496385722005e+01) (319, -5.36803369040909217347e+01) (320, -1.19412647506934881392e+01) (321, -2.12428074431365452313e+01) (322, -1.13809505842858030178e+02) (323, -1.19673118575257539931e+01) (324, -1.56721361992934671292e+01) (325, -5.95805585521201752641e+00) (326, -1.09007911481638455342e+01) (327, -9.37904411518100644685e+00) (328, -3.44589046053984304763e+01) (329, -1.50657909741624003175e+01) (330, -7.95973894077802057723e+00) (331, -1.38267036664277842561e+01) (332, -1.74154286352806408900e+01) (333, -1.38403952980359985503e+01) (334, -6.32829730539760006991e+01) (335, -9.01952634951387111073e+00) (336, -1.89428902667726930531e+01) (337, -1.18487755453926801863e+01) (338, -8.17398476661521833364e+00) (339, -1.43241765409348840166e+01) (340, -7.06106150136950727614e+00) (341, -2.12668609422391376995e+01) (342, -1.09492627554317021321e+01) (343, -1.09248716481705212544e+01) (344, -1.34468448489523684231e+01) (345, -1.34201847642279421535e+01) (346, -2.48219688169328733807e+01) (347, -6.13612013205589690301e+00) (348, -1.73529656274133046168e+01) (349, -3.45030395836033960677e+01) (350, -5.25038392549158139389e+00) (351, -1.92376454597357344767e+01) (352, -2.65922209315324060697e+01) (353, -2.28725386933498299413e+02) (354, -2.28704106018953240209e+02) (355, -2.28835606039576447301e+02) (356, -4.01537692243281512106e+01) (357, -1.31525108380329425195e+00) (358, -3.66929853815047302135e+00) (359, -1.43698871008692616869e+01) (360, -2.39983798715335368001e+01) (361, -5.36543281193199561585e+01) (362, -1.20114232471925497236e+01) (363, -7.13177986429694410475e+00) (364, -6.42444867897023108583e+00) (365, -7.08347081327631222791e+00) (366, -6.90616036304102465238e+01) (367, -1.13782795630627347805e+02) (368, -2.28682420433573639684e+02) (369, -2.28766074136905587011e+02) (370, -1.13854367256396486141e+02) (371, -1.13907066814833356716e+02) (372, -5.36853176321211265076e+01) (373, -1.82010814072651001538e+01) (374, -1.82963200183672043408e+01) (375, -1.83717358158988091077e+01) (376, -1.19256143056925001389e+01) (377, -8.21075969622809331838e+00) (378, -1.57011595783809152493e+01) (379, -4.89414706317630461285e+01) (380, -2.28788428106419956976e+02) (381, -1.19927559652503195053e+01) (382, -2.48393982581464811688e+01) (383, -8.21123339669186513845e+00) (384, -8.20411078320223730032e+00) (385, -5.17121588002739613898e+01) (386, -5.05243343341558031057e+01) (387, -2.28727301389985001379e+02) (388, -4.45778969911577362950e+01) (389, -1.25396009843609923529e+00) (390, -1.31189151270401294092e+00) (391, -1.56950049666741815457e+01) (392, -1.33241404398895060268e+01) (393, -1.33272746011234080044e+01) (394, -3.53996519860474094799e+01) (395, -7.14358363980247723646e+00) (396, -1.42397240571318501878e+01) (397, -8.13031466738659780447e+00) (398, -1.58615075541714158902e+01) (399, -7.04991387510492550916e+00) (400, -8.13467836873790872687e+01) (401, -1.34544077992058550564e+01) (402, -1.56883284417966333280e+01) (403, -1.58693237496593919644e+01) (404, -1.20098190403324842634e+01) (405, -3.25894975050984214704e+00) (406, -8.65230141882095615813e+00) (407, -1.18574131077868223372e+01) (408, -8.17526617828751334116e+00) (409, -1.34776257752991472927e+01) (410, -5.06744802835968854993e+00) (411, -3.71911282572357215770e+00) (412, -2.68108478135865402336e+00) (413, -3.84287032407845696724e+00) (414, -4.02741524495678060447e+00) (415, -7.07595153832628476209e+00) (416, -9.69333911414905173842e+01) (417, -4.38838096452755550558e+01) (418, -2.11712775751845434513e+01) (419, -8.92896733953882737467e+00) (420, 2.61605626837017979369e+00) (421, -6.36483602815108451267e+00) (422, -3.76742773040720857480e+00) (423, -4.53181473528283706997e+00) (424, -4.52201278870242706631e+00) (425, -4.17133591242628209983e+00) (426, -1.57914639158228364835e+01) (427, -4.59129496281283966397e+00) (428, -6.42056032526482489686e+00) (429, -3.06469465758317349824e+00) (430, -3.32646863683276450274e+00) (431, -4.00388832400180305626e+00) (432, -7.05512852156355130262e+00) (433, -7.03462349558069455213e+00) (434, -7.20644032889797436781e+00) (435, -1.03690186141643980733e+01) (436, -5.51145537552701370032e+00) (437, -6.42495019990394666820e+01) (438, -1.50588083603125880927e+02) (439, -1.01587072988702814769e+02) (440, -8.07733470379940854400e+00) (441, -5.61037925942228099530e+00) (442, -7.18566451901390301771e+00) (443, -1.37604023200711829134e+01) (444, -1.94156000850936933944e+01) (445, -4.98450903327260785858e+00) (446, -3.73113799393027001372e+00) (447, -3.72018261093365243397e+00) (448, -2.05989950834798518642e+00) (449, -3.36216086843033412634e+00) (450, -4.05537283339099996482e+00) (451, -1.34423439979172503200e+01) (452, -1.73981966866688111395e+01) (453, -3.07760867594713687367e+01) (454, -1.54343388253493252193e+01) (455, -7.57172623731402438807e+00) (456, -1.36865442750296217866e+01) (457, -1.38251230922779662080e+01) (458, -6.42460456225464895397e+01) (459, -2.28718021110706246191e+02) (460, -2.41678525470800273922e+01) (461, -5.39366355648581041748e+00) (462, -1.14908924322963734710e+01) (463, -1.90445318070217126660e+01) (464, -8.13479394996723783606e+01) (465, -6.90751671404407545651e+01) (466, -3.06496068867095665667e+01) (467, -2.78081299828738686131e+01) (468, -6.42958475980351522594e+01) (469, -2.28739861101918137365e+02) (470, -1.50550059755039285392e+02) (471, -1.50455210682642530173e+02) (472, -7.02360851311341320979e+01) (473, -3.07199381112093448110e+01) (474, -3.07772712229723452992e+01) (475, -3.07748012511963366933e+01) (476, -3.08618556677336215444e+01) (477, -2.78672313409299370335e+01) (478, -2.78396683650464531468e+01) (479, -8.13822596827706945533e+01) (480, -9.69427248339815719191e+01) (481, -2.61504556171558988353e+01) (482, -1.01517543820395033549e+02) (483, -8.12089070538243902320e+01) (484, -8.12336344132384908789e+01) (485, -8.12264534989556921118e+01) (486, -1.86113969206519094257e+01) (487, -6.45946093120609816651e+01) (488, -1.50452124652159284324e+02) (489, -2.28681214974336540990e+02) (490, -2.28706069425754463964e+02) (491, -2.28834753208868420415e+02) (492, -2.28823065706603443914e+02) (493, -2.28791218177490151220e+02) (494, -1.02809936581693989410e+02) (495, -2.28819767852388537221e+02) (496, -2.28764118188135540777e+02) (497, -2.28660243527107155614e+02) (498, -2.28838750631623184972e+02) (499, -1.01651485157861273478e+02) (500, -2.28832682305090344244e+02) (501, -2.28817301367484247976e+02) (502, -2.28709970564656174474e+02) (503, -2.28801035107188141637e+02) (504, -7.25834380316206040362e+00) (505, -8.12317362437209737891e+01) (506, -4.40193036421990058216e+00) (507, -1.01651803521170180034e+02) (508, -2.60967939875982892772e+01) (509, -4.01800015265170245016e+01) (510, -2.28765617379062092596e+02) (511, -2.28857068740837490850e+02) (512, -1.50458775994074414939e+02) (513, -3.31183462465542106656e+01) (514, -6.41158443673560753950e+01) (515, -1.50502446290743421287e+02) (516, -2.28837043584399140173e+02) (517, -2.30560925751463656752e+01) (518, -5.86042277746477591194e+00) (519, -4.41152044003146670548e+00) (520, -4.53565850843924156521e+00) (521, -5.37634865085902617921e+01) (522, -2.28670022831373131567e+02) (523, -2.28799523764364636236e+02) (524, -2.28721788526587403112e+02) (525, -1.49564960170248362203e+01) (526, -4.01023740837398676717e+01) (527, -1.72403857825212760702e+01) (528, -1.97598385584091786882e+01) (0, 4.38233860010367373000e-03) (1, 2.17109429071078940954e-01) (2, 4.03734983454308971051e-01) (3, 2.10467159659064484423e-01) (4, 4.53453263253522143028e-01) (5, 2.31800230509318305749e+00) (6, 1.67662108383001395850e+01) (7, 8.08360112043823164640e+00) (8, 4.73569629416506376884e+00) (9, 4.73070309386293974541e+00) (10, 2.44056467628754569787e+00) (11, 4.04756954201667296100e-01) (12, -2.24957363274492089245e-02) (13, 8.87787349030420558371e-02) (14, 1.57207881029193641265e-01) (15, 2.05295162217269344662e-01) (16, 4.23886193582505343969e-01) (17, 2.33591332948483421106e+00) (18, 1.10739153137689427808e+00) (19, 2.44823029554165794153e+00) (20, 1.09600739623754273033e+00) (21, 2.45835909164227439661e+00) (22, 1.37922919159577017645e+00) (23, 2.33444493180788947839e+00) (24, 7.28005111966638862597e-01) (25, 1.44399780668254607008e+00) (26, 5.22146207618302105047e-01) (27, 1.18313489321475051597e+00) (28, 2.37690628236807777185e+00) (29, 1.07599948605781414734e+00) (30, 5.99982950306624074344e-01) (31, 4.68147993538200080099e-01) (32, 2.28583489275254203577e+00) (33, 2.44535019910611106653e+00) (34, 2.41923369384087516565e+00) (35, 4.64835943356793013237e+00) (36, 2.29066545433081580896e+00) (37, 1.57533578462835022194e+00) (38, 1.46850706897612304225e+00) (39, 1.59834644086595245582e+00) (40, 2.46591964280880882043e+00) (41, 2.32957989266790344018e+00) (42, 8.84051001475725795054e-01) (43, 6.92266252541740345627e-01) (44, 7.36797409908447997751e-01) (45, 6.74066109889414621925e-01) (46, 5.45845353332573779426e-01) (47, 1.04618953219088184348e+00) (48, 1.07744019341882757423e+00) (49, 1.44465353228088133619e+00) (50, 4.02673216626049512712e+00) (51, 1.21231153225348164959e+00) (52, 7.65955163942251937570e-01) (53, 2.38431795603312446374e+00) (54, 4.81966339126865950249e+00) (55, 1.05094588519807796700e+00) (56, 2.15197673142669854141e-01) (57, 5.19432192452009444672e-01) (58, 5.43394711518485951096e-01) (59, 1.14402753098909171214e+00) (60, 4.02644873127342695085e+00) (61, 7.37631073938772985343e+00) (62, 4.10597982719542109464e+00) (63, 2.40810450828350974817e+00) (64, 7.17754472859302272703e-01) (65, 7.40686718617139194798e-01) (66, 1.21023371665627399452e+00) (67, 1.04812277703434886256e+00) (68, 2.86877035209718633801e-01) (69, 8.44087075526596120056e-01) (70, 4.10638047471644007658e+00) (71, 1.48447596169944495692e+00) (72, 4.83666115430236409622e-01) (73, 4.90194636502076508400e-01) (74, 4.90525908857659620477e-01) (75, 4.74943437370867638236e-01) (76, 7.52236678110037582101e-01) (77, 1.47166846570067777478e+00) (78, 7.89904451774035232248e-01) (79, 3.62040860564065314353e-01) (80, 1.12335864304453791895e+00) (81, 7.81701921330366866769e-01) (82, 1.21369889228493610389e+00) (83, 3.99159010589124152446e+00) (84, 1.16775797291700134117e+00) (85, 3.26318122965436963057e+00) (86, 1.03746649234596999278e+00) (87, -4.64942560457716758116e-02) (88, 7.72440808720150862143e-01) (89, 2.39227136141337348718e+00) (90, 8.25299061629580998911e-01) (91, 6.34392917782872878263e-01) (92, 8.50077188418779994272e-01) (93, 2.42317616856373740930e+00) (94, 4.98080934799402685886e-01) (95, 4.80419565929982972374e-01) (96, 7.84754096375380294504e-01) (97, 2.33801307446040107507e+00) (98, 2.40411162293232871789e+00) (99, 1.09604883416444720545e+00) (100, 1.84202591795887715698e+00) (101, 1.92383754719462118921e+00) (102, 1.93171386886801443872e+00) (103, 5.69692824531217278938e-01) (104, 4.54968609967940307293e-01) (105, 4.08928399994970881437e+00) (106, 4.07879531100393855070e+00) (107, 3.83203256654694568439e-01) (108, 5.17479150755044248200e-01) (109, 8.72598177598391200327e-01) (110, 4.47585691612479630308e-01) (111, 7.38961613582049148263e-01) (112, 1.07739163040072383204e+00) (113, 4.85551057487685566727e-01) (114, 7.22739178811977245331e-01) (115, 2.36933497256316139001e+00) (116, 1.07389142380429114532e+00) (117, 1.50885680206056327357e+00) (118, 7.46095970990226575736e+00) (119, 3.20053703111749676680e+00) (120, 8.85091922090922023081e-01) (121, 1.02364176495973380199e+00) (122, 8.41827294634256984018e-01) (123, 7.83756068752680556955e-01) (124, 7.80580825017367141427e-01) (125, 9.31753879512682070541e-01) (126, 1.06454917627779610534e+00) (127, 4.01632978484035962907e+00) (128, 4.13745322540403925871e+00) (129, 4.05918703690172666398e+00) (130, 4.03930618330837720720e+00) (131, 7.47153381230399915580e+00) (132, 2.44242587602414085168e+00) (133, 1.74262595642771445092e+00) (134, 4.98255158759910776745e-01) (135, 4.40462242249558599827e-01) (136, 2.76952360626862459370e-01) (137, 6.24906505501040210326e-01) (138, 6.47505742413843066174e-01) (139, 5.00303296903472638490e-01) (140, 1.15867549030930461207e+00) (141, 1.80817518849339253784e+00) (142, 1.79463653732504613281e+00) (143, 1.85051215906109578491e+00) (144, 1.75206049997772939086e+00) (145, 1.68855789816798278480e+01) (146, 8.76005575604315644966e+00) (147, 1.67796081147016593604e+01) (148, 1.45513733364577979579e+00) (149, 8.15198567194067136299e-01) (150, 3.99806704042101335173e-01) (151, 4.17424543588557239726e-01) (152, 2.69744555003489872025e-01) (153, 1.12421706913859309473e+00) (154, 4.07032950684429639665e+00) (155, 1.90592025686468802270e+00) (156, 1.09692761524469317713e+00) (157, 7.55461304293547408761e-01) (158, 1.88672666717734105468e+00) (159, 1.80921573657955891967e+00) (160, 4.08802379384638392423e+00) (161, 4.09852698162199580167e+00) (162, 1.49086442477937430873e+00) (163, 5.15582759510514021528e-01) (164, 6.87116129563892563681e-01) (165, 4.08988712738345971953e-01) (166, 1.91793589760031424341e+00) (167, 1.04386885314137400904e+00) (168, 2.38047359800614310998e+00) (169, 1.21183729021698871620e+00) (170, 8.42320940302286769175e-01) (171, 6.45220110512539801739e-01) (172, 7.44371121989334194602e-01) (173, 2.42634853637494041223e+00) (174, 1.71188176479164644306e+00) (175, 2.44953623330868675012e+00) (176, 6.51019807670891181850e-01) (177, 2.63431761423924437615e-01) (178, -1.08027801255290295535e-01) (179, 2.24065585137127099014e-01) (180, 8.72186324404154444956e-01) (181, 6.51635223981874900367e-01) (182, 7.66981898651991622629e-01) (183, 8.57121026919756556772e-01) (184, 3.28578854871135783711e+00) (185, 1.49733124432419661964e+00) (186, 4.62474631465240981765e-01) (187, 8.33999178217326053719e-01) (188, 8.79539580441590196358e+00) (189, 1.23021483271271625526e+00) (190, 1.44002193845744841383e+00) (191, 1.15413969360326174041e+00) (192, 1.49011783935065955653e+00) (193, 7.91372871266449062766e-01) (194, 1.84931227089629990346e+00) (195, 1.13094555144068187325e+00) (196, 4.35008614427777717815e-01) (197, 4.50482704493584462657e-01) (198, 8.11724833338273166206e-01) (199, 5.64923194525057681403e-01) (200, 1.78257676111327034718e+00) (201, 1.58238091953035064918e+00) (202, 6.04483139419754067490e-01) (203, 8.95923221525397606158e-01) (204, 6.14927016290244377039e-01) (205, 1.92592473794188223657e+00) (206, 7.55104980276499526681e-01) (207, 1.56808070726628967506e+00) (208, 9.17920822140469438999e-01) (209, 6.31035948154467063453e-01) (210, 7.54990472303305404367e-01) (211, 1.77338452358212239623e+00) (212, 4.07285013511778437589e+00) (213, 7.27523452734006537135e-01) (214, 5.25127645145964550011e-01) (215, 8.14595393030655978706e-01) (216, 5.70614557765879770734e-01) (217, 2.34996838784493400354e+00) (218, 5.69402681766579488176e-01) (219, 6.70849875463092604200e-01) (220, 3.19579212886434582686e+00) (221, 5.92163645380933800766e-01) (222, 4.82763080809681999206e-01) (223, 1.47079807408090323939e+00) (224, 7.76979914711390273752e-01) (225, 5.17359631118314955422e-01) (226, 4.83650521099507124667e-01) (227, 6.27884164062282312813e-01) (228, 9.36233956495543084841e-01) (229, 1.77414281387295491577e+00) (230, 2.33976116693295432825e+00) (231, 1.52705143280263633265e+00) (232, 8.27253958986674198250e-01) (233, 1.57598054297204681617e+00) (234, 1.50498716421361655726e+00) (235, 4.65008967235623627001e-01) (236, 4.97371785953580280992e-01) (237, 3.98077348630021921050e-01) (238, 6.82625746922942200356e-01) (239, 7.86195010286799500498e-01) (240, 4.10978467479349696134e+00) (241, 2.14287391690131379107e+00) (242, 1.23615394382626453407e+00) (243, 4.36614401053490308602e-01) (244, 4.68179231806966245077e-01) (245, 5.13240551895662866499e-01) (246, 5.26914208395119931794e-01) (247, 5.49373868922218400179e-01) (248, 4.57184407929405234317e-01) (249, 2.83154985043185591920e-01) (250, 4.96458436763971777683e-01) (251, 6.86466575418024582689e-01) (252, 7.79518111453924911203e-01) (253, 7.53241865740690963449e-01) (254, 1.01962782426778586498e+00) (255, 4.70762634145601877034e-01) (256, 3.22217372835055415603e-01) (257, 3.05786402553692882034e-01) (258, 4.11711787118685168529e-01) (259, 7.03135668841144312324e-01) (260, 1.93963152636255942163e+00) (261, 1.78130343649949796081e+00) (262, 1.76110212970938451171e+00) (263, 5.97433934091160634416e-01) (264, 2.52798893254591872104e-01) (265, 2.54886828439215840092e-01) (266, -4.97863274030702962492e-01) (267, 2.81496691634530671333e-01) (268, 4.80815029154609663298e-01) (269, 4.97495746622871382048e-01) (270, 7.06683812903011521200e-01) (271, 4.83074045191596967985e-01) (272, 7.05689686245480674032e-01) (273, 1.77871773858036763549e+00) (274, 1.90330850053991995630e+00) (275, 1.13509257121984274974e+00) (276, 4.65440510971184939759e-01) (277, 7.45190709439060072761e-01) (278, 1.12813614879405221814e-01) (279, 2.69887264816823235769e-01) (280, 5.93948743847152571540e-01) (281, 3.61614772707596843215e-01) (282, 5.12972301631369642649e-01) (283, 4.17983200932195264610e-01) (284, 3.51462238921975089756e-01) (285, 5.19872704043244371341e-01) (286, 3.94328077777480079380e-01) (287, 9.90247598320674743411e-02) (288, 4.35700774573799853862e-01) (289, 1.01815551379256963305e-01) (290, 5.30500930526577874069e-01) (291, 8.06169739769373783211e-01) (292, 4.52025341189667251296e-01) (293, 6.98966085520526636543e-01) (294, 1.01011820895435411316e+00) (295, 2.12928173709364426669e-01) (296, 6.10568973776838053169e-01) (297, 6.01101286319038252692e-01) (298, 6.77689060178538915657e-01) (299, 1.40354193738653987289e-01) (300, -1.14555759399781631469e-01) (301, 2.03828756299998664625e-01) (302, 3.33602695906973112372e-01) (303, -6.85525458349882654829e+00) (304, 3.34495918267167069438e-01) (305, 5.28975543358647382064e-01) (306, 3.93788830134482181755e-01) (307, 4.32402650811035349498e-01) (308, 5.65405803120895944502e-01) (309, 6.84299870935222265267e-01) (310, 3.65845710517483380109e-01) (311, 6.48600052937542081999e-01) (312, 6.62503487971564997139e-01) (313, 1.56820668039177735231e+00) (314, 5.87218790856143701973e-01) (315, 4.12265204136698648618e-01) (316, 4.46011776581120955587e-01) (317, 3.47083281547054312011e-01) (318, 8.34812526350295208699e-02) (319, -2.68560000690559208536e+00) (320, 4.71707481881268597679e-01) (321, 4.22623277909123906682e-01) (322, 4.13172778918516558910e-01) (323, 5.36772804654404134261e-01) (324, 4.12194158661320697590e-01) (325, 9.37088897854517627328e-02) (326, 5.78352935221931097054e-01) (327, 1.06490331901075419019e+00) (328, 7.50087260809680911322e-01) (329, 2.05018598849109112692e-01) (330, 1.67258628372280587771e-01) (331, 1.82230844067194724945e-01) (332, 2.15593798922159934905e-01) (333, 3.27333077833183549998e-01) (334, 2.62401541116218883776e-01) (335, 4.32583237427341116277e-01) (336, 3.50542038603711969547e-01) (337, 4.06106432421746765815e-01) (338, 1.06239470078651221385e+00) (339, 3.22255927098136929487e+00) (340, 3.73781959071469882527e-01) (341, 4.77948029361912385404e-01) (342, 4.95740615539514206667e-01) (343, 4.82093509919773455241e-01) (344, 3.98927115365864226604e+00) (345, 1.75806649495329625488e+00) (346, 3.17865233689769766112e-01) (347, 2.29106057300218657335e-01) (348, 2.72313796214592784839e-01) (349, 4.54141496641909225840e-01) (350, 4.98872892576720072810e-01) (351, 4.34469743026843768785e-01) (352, 3.42039249613800777627e-01) (353, 5.76074850276158678675e-01) (354, 2.19518801259279777716e-01) (355, 4.91773155310475384994e-01) (356, 3.99867968129500150898e-01) (357, 9.32564369841886953161e-01) (358, 1.07445931418840201488e+00) (359, 6.18503633496305216255e-01) (360, 6.65990724233102127094e-01) (361, 6.79640456643840429329e-01) (362, 4.53221727930256390593e-01) (363, 6.35050706175109613838e-01) (364, 5.44220971263214559066e-01) (365, 1.46422735465561948409e-01) (366, 1.17086456700269470055e+00) (367, 6.08531399634789638142e-01) (368, 6.21334355786488989892e-01) (369, 4.52861370407061092358e-01) (370, 3.24515529563803084567e-01) (371, 1.60553579780498723029e-01) (372, 2.45720827547395243018e-01) (373, 1.43133856152194594014e-01) (374, 1.37925175662540644428e-01) (375, 7.46288656798145155769e-01) (376, 4.22840273924774578962e-01) (377, 7.70980151718573120112e-02) (378, 2.00934597299044115370e-01) (379, 5.27246453680383253548e-01) (380, 3.65915570569048609340e-01) (381, 6.53745888737153335590e-01) (382, 1.08567581309978278270e+00) (383, 2.27333002296737207715e+00) (384, 1.04411843058360553904e+00) (385, 2.18668922541192589648e+00) (386, 1.09577695264522367857e+00) (387, 7.04017340746661890449e-01) (388, 5.87865158525249342780e-01) (389, 1.38231896126798037283e-01) (390, 7.63980952806538465838e-02) (391, 3.48503797176564600324e-01) (392, 3.76869618544758699930e-01) (393, 9.91317816207428537112e-01) (394, 1.26351899099869352527e-01) (395, 1.59130907498821694279e-01) (396, 2.20475004727930301573e-01) (397, 5.68134922802628583582e+00) (398, 9.69680748273548775984e-01) (399, 9.67398186344263999459e-01) (400, 5.19646119487295776729e-01) (401, 6.03026411500882320027e-01) (402, 4.53726820917450357484e+00) (403, 1.20134781983778626824e+00) (404, 1.70210313288866075254e+01) (405, 1.71171921616791280485e+01) (406, 4.59889330239616800355e+00) (407, 3.61660311498309683387e-01) (408, 2.36426075236904398302e-01) (409, 1.79780988471395425377e-01) (410, 1.31039322601663760226e-01) (411, 2.76993698301995661115e-01) (412, 4.48372160473329506303e-01) (413, 3.36520521763051416730e-01) (414, 6.19060696726562498249e-01) (415, 2.16667543110898552783e+00) (416, 9.02373819443431379739e+00) (417, 4.83505723690511812762e-01) (418, 4.84561352876502815512e-01) (419, 1.41134547877662080984e-01) (420, 7.18325882152402866998e-02) (421, -3.47471378575572378833e-02) (422, 1.13734421420240691680e-01) (423, 3.31686354969638552692e-01) (424, 7.35480456398890325431e+00) (425, 1.68572568363370010047e+01) (426, 7.40184208722875425224e+00) (427, 4.01129153832794660417e+00) (428, 3.50579752653236598192e-01) (429, 1.19903077619182785174e-01) (430, 1.61091181328847976584e-01) (431, 2.14297062423782602725e-01) (432, 1.30779956313926359890e-01) (433, -3.80344695990686709752e-02) (434, 1.18462382503292412705e-01) (435, 6.19117644928488086720e-01) (436, 2.66316920170964033243e-01) (437, 5.92057791851553272267e-01) (438, 2.71405174980343610880e-01) (439, 3.59456463578427753980e-01) (440, 2.01743190320285287198e-01) (441, 3.56917604456128023660e-01) (442, 1.59302948093635904359e-01) (443, 1.62711586237735406080e-01) (444, 3.03364424827779199934e-01) (445, 3.28382863524640411512e-01) (446, 4.12381830812771132955e-01) (447, 4.28842959734627549029e-01) (448, 3.61668346480236213569e-01) (449, 4.27089584734535454569e-01) (450, 4.10868658896132732394e+00) (451, 2.25664048466936023596e-01) (452, 5.64466707818040425160e-01) (453, 4.82630387329575138988e-01) (454, 1.12881523755225379735e-01) (455, 5.65968856250309224065e-02) (456, 1.23659630437136042191e-01) (457, 2.58834425827562594757e-02) (458, 2.30283037587134475910e-01) (459, 3.67940082076276209211e-01) (460, 2.51407786133969635145e-01) (461, 7.10218652164481545341e-01) (462, 2.36244950706294476461e-01) (463, 2.08930976157040620977e-01) (464, 2.20471235870142251434e-01) (465, 2.41205380355977855311e-01) (466, 3.40444235923970661695e-01) (467, 2.08921253634164783008e+00) (468, 1.37588804255828467404e+00) (469, 6.10558659060718378342e-01) (470, 2.00630492392266601698e-01) (471, 2.19110781292465750525e-01) (472, 1.61867483737511752562e-01) (473, 7.28494526629396510486e-01) (474, 6.71833904271074366932e-01) (475, 3.46541169327312215120e-01) (476, 5.63407644773657789727e-01) (477, 2.60634015260555906845e-01) (478, 1.11288626964310993772e-01) (479, 1.26049550694786294258e-01) (480, 2.09216954656272630109e-01) (481, 1.33746763874959345708e-01) (482, 1.53635822059599441713e-01) (483, 5.32823291188316172651e-01) (484, 1.80576268451776544843e+00) (485, 1.47197848780278839342e+00) (486, 9.17821893738221539216e-02) (487, 2.03466200804925390067e-01) (488, 3.92471685171147255389e+00) (489, 1.36368291673814723275e+00) (490, 9.04571771750469988405e-01) (491, 2.74764992969763355291e+00) (492, 4.12478099480272852873e+00) (493, 5.38849011447729431268e+00) (494, 1.11128087670208630655e+00) (495, 5.52027834442875287024e-01) (496, 4.24093163126181948996e-01) (497, 2.38523669910175456499e-01) (498, 2.06320784169748666637e-01) (499, 9.26235730593713141312e-02) (500, 2.40283520496106545172e-01) (501, 2.81591930961823944113e-01) (502, 3.52003128802991449575e-01) (503, 2.52902660383829192003e-01) (504, 1.09776637497199569538e-01) (505, 7.12103432556476373394e-02) (506, 1.38023397479350262707e+00) (507, 4.04596426850290846744e-01) (508, 2.84403783412726929303e-01) (509, 1.34713907057574633352e-01) (510, 2.52561794197774303061e-01) (511, 2.42530302679753700934e-01) (512, 1.62217010741467970725e+00) (513, 